result_num,vaccine,l18f,t19r,t20n,p26s,69-70d,d80a,t95i,d138y,g142d,144d,e154k,d156-157,r190s,d215g,a222v,242-244d,r246i,s247r,k417n,k417t,l452r,t478k,e484q,e484k,n501y,a570d,d614g,h655y,p681r,p681h,a701v,t716i,d950n,s982a,t1027i,q1071h,d1118h,v1176f,
result_0.168_1,0.012,0.073,0.012,-0.002,0.005,-0.035,0.140,0.010,-0.003,0.011,-0.110,0.004,-0.001,-0.000,0.106,0.010,0.140,-0.033,0.044,0.239,0.342,0.026,0.000,-0.006,0.394,0.021,0.039,0.408,-0.005,0.008,0.000,0.178,0.037,0.007,0.283,0.010,0.027,0.034,0.020,
