result_num,l18f,t19r,t20n,p26s,69-70d,d80a,t95i,d138y,g142d,144d,e154k,d156-157,r190s,d215g,a222v,241-243d,r246i,s247r,k417t+e484k,k417n+e484k,k417n,k417t,l452r+e484q,l452r,t478k,t478k+l452r,e484k,e484q,n501y,n501y+k417n,n501y+k417t,n501y+e484k,a570d,d614g,h655y,p681r,p681h,a701v,t716i,d950n,s982a,t1027i,q1071h,d1118h,v1176f,
result_0.191_1,1.166,0.300,-0.381,-0.497,0.213,0.142,-0.083,-0.123,-0.143,0.272,-0.112,0.008,-0.538,1.008,0.025,0.059,0.196,0.002,-0.428,0.706,0.169,-0.012,-0.161,0.090,0.577,0.012,0.538,-0.114,0.258,0.038,-0.108,0.168,0.023,0.003,-0.334,0.440,0.013,0.024,0.015,0.437,0.025,-0.309,-0.082,0.014,-0.370,
result_0.190_2,1.255,0.012,-0.132,-0.100,0.062,-0.002,0.057,-0.592,0.029,0.098,0.159,0.467,-0.304,0.210,0.005,1.159,-0.002,0.000,-0.281,-0.003,0.435,-0.592,0.100,0.003,0.012,0.763,0.163,0.051,0.123,-0.003,-0.467,0.382,0.046,0.004,-0.202,0.207,0.107,-0.003,0.187,0.005,0.067,-0.121,0.184,0.277,-0.308,
result_0.188_3,0.703,0.008,-0.464,-0.072,0.132,0.326,0.064,-0.597,0.004,0.115,0.013,0.028,-0.354,0.235,0.018,0.044,0.200,-0.001,-0.339,0.214,0.257,-0.388,-0.183,0.047,0.017,0.002,0.974,-0.110,0.036,0.759,-0.469,0.576,0.078,-0.005,-0.116,0.375,0.158,0.845,0.211,0.836,0.249,-0.350,0.032,0.214,-0.114,
result_0.189_4,1.152,0.724,-0.049,-0.363,0.035,-0.003,0.009,-0.583,0.193,0.033,0.010,0.030,-0.297,0.599,0.014,0.011,0.836,-0.008,-0.514,0.000,-0.004,-0.407,0.254,0.067,0.009,0.001,0.730,0.006,0.068,0.820,-0.043,0.170,0.067,-0.010,-0.176,0.013,0.114,-0.005,0.270,0.607,0.246,-0.510,0.130,0.195,-0.357,
result_0.197_5,1.210,0.168,-0.274,-0.859,-0.002,0.711,0.015,-0.141,0.054,-0.050,0.046,0.648,-0.164,0.002,0.142,0.018,0.003,0.004,-0.155,0.199,0.010,-0.170,0.034,0.194,0.455,0.025,0.185,0.042,0.187,0.623,-0.170,0.236,0.177,0.001,-0.167,0.266,-0.125,0.633,0.188,0.210,0.147,-0.148,0.027,0.238,-0.164,
result_0.191_6,0.638,0.007,-0.182,-0.333,0.282,0.910,0.001,-0.099,0.022,0.241,0.015,0.025,-0.128,0.042,0.029,0.043,0.002,-0.000,-0.070,0.752,0.480,-0.424,0.036,0.088,0.645,0.583,0.819,0.086,0.192,0.057,-0.386,0.824,0.046,-0.001,-0.781,0.238,0.047,0.058,0.138,0.168,0.192,-0.429,0.192,0.013,-0.067,
result_0.188_7,1.254,0.854,-0.168,-0.223,0.013,0.849,0.006,-0.899,0.002,0.036,0.011,0.110,-0.556,0.459,0.137,0.200,0.158,-0.000,-0.095,0.558,0.328,-0.351,0.005,0.343,0.105,0.030,0.325,0.003,0.066,0.424,-0.427,0.573,0.187,-0.000,-0.002,0.044,0.024,0.431,0.003,0.108,0.013,-0.009,0.010,0.375,-0.003,
result_0.199_8,1.172,0.027,-0.070,-0.088,0.001,0.113,-0.381,-0.019,-0.428,0.002,-0.196,0.008,-0.602,0.000,0.032,0.147,0.814,-0.028,-0.442,0.000,0.000,-0.144,-0.122,0.849,0.248,0.009,0.330,-0.026,0.360,0.000,-0.307,0.387,0.001,-0.046,-0.622,0.001,0.001,0.860,0.003,0.006,0.002,-0.301,-0.475,0.002,-0.095,
result_0.191_9,1.118,0.002,-0.206,-0.269,0.202,-0.005,0.006,-0.415,0.001,0.182,0.017,0.004,-0.424,0.653,0.582,0.164,-0.003,-0.000,-0.368,-0.004,-0.002,-0.434,0.002,0.307,0.636,0.002,0.711,0.002,0.229,0.882,-0.748,0.228,0.085,0.002,-0.050,0.145,0.049,0.650,0.079,0.162,0.125,-0.081,0.011,0.135,-0.015,
result_0.192_10,1.007,-0.001,-0.197,-0.006,0.038,0.660,0.056,-0.050,-0.000,0.006,-0.000,0.041,-0.239,0.006,0.635,0.028,0.025,-0.000,-0.027,0.008,0.026,-0.714,-0.000,0.092,0.034,0.569,0.238,-0.000,0.332,0.019,-0.389,0.788,0.018,0.011,-0.414,0.292,0.010,1.047,0.080,-0.001,0.091,-0.548,0.119,0.006,-0.049,
result_0.191_11,0.949,0.468,-0.010,-0.006,0.224,0.625,0.008,-0.972,0.033,0.022,-0.013,0.543,-0.539,0.387,0.374,0.270,0.248,-0.008,-0.003,0.217,0.311,-0.307,0.046,0.002,0.363,0.021,0.959,0.100,0.115,0.882,-0.003,0.017,0.274,-0.000,-0.072,0.310,0.192,0.207,0.240,0.037,0.021,-0.007,0.104,0.163,-0.003,
result_0.191_12,1.231,-0.013,-0.228,-0.123,0.010,0.569,0.061,-0.041,0.208,0.166,0.028,-0.012,-0.068,0.520,0.341,0.183,0.109,0.137,-0.077,0.930,0.185,-0.801,0.032,0.030,0.753,0.364,0.006,0.088,0.128,0.025,-0.137,0.466,0.084,0.016,-0.722,0.129,0.328,0.154,0.062,0.187,0.098,-0.017,0.237,0.085,-0.038,
result_0.199_13,0.833,0.182,-0.465,-0.260,0.114,0.232,-0.198,-0.029,-0.301,0.085,-0.297,0.232,-0.406,0.017,0.616,0.342,0.011,0.010,-0.117,0.982,0.293,-0.553,0.018,0.566,0.113,0.110,0.130,-0.057,0.337,0.034,-0.150,1.043,0.005,0.002,-0.182,0.132,0.008,0.620,0.007,0.119,0.036,-0.437,0.019,0.020,-0.580,
result_0.191_14,0.822,0.802,-0.260,-0.208,0.193,-0.005,0.063,-0.207,-0.000,0.226,-0.000,0.001,-0.086,0.618,0.243,0.293,0.458,-0.002,-0.625,-0.012,0.406,-0.400,-0.001,0.340,0.259,0.002,0.524,-0.000,0.150,0.823,-0.526,0.925,0.242,-0.002,-0.008,0.024,0.069,0.279,0.025,0.001,0.003,-0.556,0.040,0.144,-0.180,
result_0.193_15,1.242,0.010,-0.021,-0.280,0.025,0.175,0.244,-0.353,0.234,0.043,0.005,0.339,-0.435,0.007,0.068,0.230,1.109,-0.004,-0.060,0.137,0.192,-0.758,0.001,0.005,0.445,0.217,0.155,0.025,0.345,0.352,-0.516,0.366,0.029,-0.023,-0.041,0.025,0.028,0.173,0.046,0.661,0.082,-0.014,0.038,0.032,-0.069,
result_0.195_16,0.789,-0.001,-0.084,-0.745,0.010,0.711,0.005,-0.006,-0.064,0.010,-0.314,0.426,-0.172,0.600,-0.000,0.407,0.337,-0.021,-0.306,0.053,0.207,-0.005,0.000,0.105,-0.002,0.642,1.013,-0.051,0.359,0.294,-0.004,0.133,0.014,-0.077,-0.562,0.458,0.001,0.512,0.018,-0.002,0.015,-0.483,-0.007,0.004,-0.008,
result_0.192_17,1.126,0.808,-0.044,-0.052,0.003,0.129,0.001,-0.037,0.036,0.004,0.036,-0.001,-0.534,0.617,-0.001,0.085,0.185,0.000,-0.020,0.610,0.081,-0.050,0.001,0.266,-0.004,0.263,0.603,0.001,0.372,0.931,-0.868,0.409,0.004,0.021,-0.492,0.247,0.004,0.034,0.003,-0.007,0.003,-0.062,0.054,0.003,-0.282,
result_0.194_18,1.228,0.494,-0.166,-0.549,0.026,0.302,-0.003,-0.055,-0.006,0.009,-0.001,0.255,-0.018,-0.001,0.092,0.465,0.465,0.023,-0.115,0.555,0.856,-0.146,-0.007,0.323,0.324,0.240,0.374,-0.003,0.399,-0.001,-0.041,0.286,0.032,0.004,-0.950,0.016,0.008,0.212,0.011,0.477,0.012,-0.071,-0.028,0.014,-0.111,
result_0.209_19,0.952,0.008,-0.511,-0.070,-0.001,0.001,-0.336,-0.048,0.019,-0.009,0.040,0.492,-0.268,0.514,0.008,0.353,0.002,-0.071,-0.034,0.599,0.003,-0.066,-0.322,0.338,0.008,0.014,0.608,-0.063,0.361,0.675,-0.062,0.166,-0.009,-0.004,-0.050,0.612,-0.008,0.000,-0.004,0.009,-0.037,-0.028,-0.378,-0.007,-0.700,
result_0.196_20,1.281,0.026,-0.179,-0.461,0.007,-0.001,0.004,-0.320,0.001,0.046,0.000,0.042,-0.382,0.000,0.158,0.666,0.183,0.001,-0.469,-0.001,-0.001,-0.211,0.001,0.100,0.165,0.826,0.185,0.000,0.311,1.048,-0.138,0.295,0.034,0.001,-0.307,0.341,0.071,-0.001,0.004,0.048,0.051,-0.281,0.000,0.013,-0.623,
result_0.193_21,0.917,0.258,-0.111,-0.005,0.016,0.581,0.047,-0.486,0.070,0.366,-0.132,0.002,-0.019,0.063,0.004,0.471,0.846,-0.006,-0.328,0.040,0.034,-0.019,-0.092,0.000,0.603,0.543,0.928,0.035,0.108,0.587,-0.960,0.258,0.046,-0.003,-0.002,0.380,0.064,0.043,0.151,0.140,0.046,-0.014,0.030,0.129,-0.024,
result_0.192_22,1.154,0.491,-0.274,-0.121,0.010,0.158,0.011,-0.225,0.008,0.049,0.020,0.092,-0.637,0.411,0.518,0.804,0.082,0.003,-0.267,0.115,0.109,-0.044,0.020,-0.077,0.029,0.434,0.124,0.192,0.358,0.751,-0.006,0.579,0.027,0.009,-0.568,-0.007,0.010,0.340,0.033,0.359,0.010,-0.018,0.293,0.035,-0.555,
result_0.191_23,0.793,-0.024,-0.521,-0.422,0.019,-0.007,0.030,-0.230,0.111,0.037,0.074,0.511,-0.516,-0.009,0.470,0.601,0.651,0.000,-0.182,-0.000,-0.001,-0.381,0.052,0.308,0.313,0.436,1.099,0.105,0.164,0.379,-0.137,0.145,0.019,0.000,-0.023,0.020,0.053,0.886,0.327,-0.035,0.029,-0.443,0.048,0.368,-0.499,
result_0.193_24,1.275,0.019,-0.026,-0.116,0.021,0.631,0.003,-0.028,0.049,0.003,0.002,0.025,-0.006,0.634,0.443,0.032,0.089,0.008,-0.020,0.121,0.047,-0.026,0.018,0.338,0.019,0.020,0.072,0.001,0.356,0.891,-0.103,0.350,0.003,0.022,-0.014,0.011,0.005,0.062,0.003,0.730,0.003,-1.115,0.046,0.035,-0.205,
result_0.207_25,1.130,0.062,-0.411,-0.154,-0.008,0.003,0.017,-0.214,-0.010,0.001,0.010,-0.005,-0.062,0.027,0.474,0.050,0.741,0.000,-0.454,0.313,0.056,-0.351,0.006,0.096,0.592,-0.003,0.335,-0.002,0.330,0.519,-0.465,0.221,-0.005,0.074,-0.326,0.368,-0.008,0.613,0.001,-0.004,-0.021,-0.101,-0.028,0.001,-0.134,
result_0.192_26,0.849,0.529,-0.277,-0.155,0.004,0.001,0.143,-0.746,0.042,0.006,0.071,-0.005,-0.029,0.870,0.138,0.519,0.002,0.009,-0.690,0.697,0.434,-0.230,0.011,0.036,0.554,0.303,0.400,0.010,0.361,0.001,-0.096,0.983,0.004,0.020,-0.364,0.290,0.005,0.001,0.006,0.227,0.005,-0.191,0.017,0.004,-0.116,
result_0.193_27,0.901,0.005,-0.027,-0.107,0.038,-0.002,0.250,-0.004,0.127,0.003,0.123,0.004,-0.237,0.211,0.020,0.801,-0.000,0.034,-0.055,-0.003,0.920,-0.712,0.088,0.089,0.003,0.387,0.107,0.046,0.348,-0.001,-0.615,0.929,0.006,0.012,-0.216,0.036,0.011,-0.001,0.010,0.815,0.014,-0.493,0.049,0.059,-0.046,
result_0.195_28,0.857,0.002,-0.086,-0.311,0.001,0.024,-0.031,-0.465,-0.036,0.002,-0.104,0.791,-0.214,0.018,0.004,0.010,0.037,0.035,-0.035,0.017,0.009,-0.046,-0.029,0.380,0.202,0.051,0.956,-0.082,0.345,0.883,-0.054,0.176,0.003,0.000,-0.799,0.028,0.001,0.853,0.003,0.007,0.005,-0.397,-0.032,0.001,-0.071,
result_0.193_29,1.333,0.418,-0.265,-0.154,0.010,0.528,0.174,-0.669,0.181,0.051,0.023,0.001,-0.131,0.463,0.000,0.005,0.690,0.007,-0.209,0.004,0.001,-0.270,0.162,0.067,0.748,0.001,-0.000,0.133,0.346,0.640,-0.135,0.106,0.008,0.003,-0.297,0.102,0.010,0.515,0.067,0.302,0.037,-0.302,0.067,0.010,-0.682,
result_0.193_30,1.285,0.704,-0.416,-0.317,0.003,0.181,0.150,-0.411,0.037,0.014,0.241,-0.015,-0.465,-0.002,-0.012,-0.002,-0.002,-0.001,-0.348,0.018,0.181,-0.261,0.117,0.066,-0.012,-0.024,0.481,0.077,0.335,1.124,-0.310,0.015,0.010,-0.001,-0.522,0.003,0.006,0.634,0.008,0.570,0.006,-0.288,0.139,0.004,-0.337,
result_0.197_31,1.212,0.020,-0.321,-0.065,0.001,0.155,0.187,-0.133,0.059,0.001,0.089,0.109,-1.036,0.898,0.016,0.657,0.145,0.001,-0.015,0.153,0.086,-0.109,0.065,0.001,0.752,0.022,0.017,0.286,0.325,0.163,-0.224,0.634,0.001,0.010,-0.150,0.001,0.001,0.583,0.008,0.503,0.001,-0.256,0.003,0.001,-0.208,
result_0.190_32,0.858,0.345,-0.841,-0.162,0.063,0.000,0.035,-0.442,0.089,0.051,0.085,0.761,-0.172,0.265,0.006,0.000,0.002,-0.000,-0.540,0.904,0.177,-0.223,0.283,0.009,0.439,0.010,0.093,0.092,0.079,0.000,-0.308,1.069,0.032,-0.003,-0.160,0.005,0.410,0.901,0.032,0.010,0.116,-0.055,0.101,0.005,-0.183,
result_0.192_33,0.751,-0.018,-0.279,-0.417,0.023,0.026,0.002,-0.041,0.074,0.020,0.018,-0.009,-0.573,0.054,-0.013,1.147,0.209,0.005,-0.351,0.082,0.086,-0.586,0.011,0.322,0.830,0.057,1.041,0.012,0.333,0.469,-0.112,0.316,0.030,0.008,-0.395,0.091,0.003,0.066,0.003,0.176,0.075,-0.295,0.030,0.117,-0.046,
result_0.191_34,1.222,0.091,-0.089,-0.013,0.009,0.043,-0.024,-0.901,-0.039,0.007,-0.025,0.177,-0.015,0.534,0.191,0.728,0.792,0.014,-0.008,0.026,0.033,-0.169,-0.042,0.164,0.061,0.008,0.125,-0.069,0.249,0.166,-0.014,0.361,0.004,0.001,-0.598,0.312,0.105,0.012,0.059,0.757,0.319,-0.015,-0.032,0.004,-0.008,
result_0.201_35,1.177,0.300,-0.083,-0.082,0.001,0.232,0.190,-0.052,0.177,0.000,0.162,0.002,-0.789,0.024,0.027,0.008,0.216,0.058,-0.017,0.023,1.098,-0.684,0.120,0.005,0.174,0.845,0.461,0.032,0.328,0.139,-0.050,0.268,0.000,0.019,-0.014,0.016,0.000,0.251,0.001,0.007,0.000,-0.109,0.138,0.000,-0.034,
result_0.200_36,1.108,0.389,-0.088,-0.025,-0.002,0.090,0.111,-0.103,0.072,-0.004,-0.089,0.392,-0.098,0.006,0.573,0.990,0.666,-0.097,-0.296,0.050,0.001,-0.540,0.056,-0.006,-0.004,-0.001,0.526,-0.254,0.358,0.001,-0.619,0.049,-0.006,-0.004,-0.075,0.419,-0.006,0.005,-0.008,-0.003,-0.001,-0.059,0.085,-0.000,-0.509,
result_0.204_37,1.233,0.093,-0.008,-0.554,0.012,-0.008,0.035,-0.002,0.013,0.114,0.062,0.283,-0.490,0.168,0.835,0.835,-0.010,0.004,-0.624,0.287,-0.001,-0.124,0.037,0.348,0.058,0.026,0.234,0.024,0.325,-0.005,-0.420,0.023,0.086,0.058,-0.003,0.016,0.002,0.828,0.032,0.010,0.012,-0.008,0.028,0.062,-0.005,
result_0.191_38,0.867,-0.004,-0.153,-0.009,0.079,0.065,0.014,-0.570,0.011,0.007,0.078,0.571,-0.070,0.063,0.344,0.002,0.044,-0.003,-0.099,0.584,0.803,-0.487,0.000,0.303,0.317,0.437,0.967,0.125,0.339,0.780,-0.259,0.270,0.007,-0.009,-0.760,0.029,0.007,0.124,0.007,-0.015,0.122,-0.253,0.000,0.007,-0.076,
result_0.193_39,0.842,0.057,-0.341,-0.169,0.019,0.027,-0.060,-0.483,0.002,0.018,0.001,0.588,-0.392,1.207,0.055,0.036,0.009,-0.000,-0.374,0.033,0.050,-0.382,0.003,0.134,0.112,0.501,0.089,0.001,0.368,0.379,-0.506,1.016,0.011,0.005,-0.324,0.389,0.054,0.023,0.005,0.024,0.003,-0.182,-0.219,0.018,-0.254,
result_0.188_40,1.167,0.249,-0.560,-0.884,0.311,0.513,0.053,-0.008,0.087,-0.057,0.011,0.320,-0.014,0.049,0.413,0.223,0.048,-0.010,-0.692,0.287,0.587,-0.035,0.004,0.176,0.183,0.661,0.701,0.009,0.051,0.339,-0.003,0.449,0.327,-0.020,-0.001,0.269,-0.090,0.989,0.327,0.210,-0.225,-0.017,0.079,-0.231,-0.018,
result_0.193_41,1.039,0.014,-0.172,-0.391,0.003,0.764,0.006,-0.468,0.004,0.006,0.004,0.002,-0.121,0.052,0.290,0.183,0.914,0.004,-0.095,0.011,0.043,-0.129,0.004,0.047,0.268,0.745,0.796,0.006,0.349,0.041,-0.559,0.244,0.004,-0.016,-0.633,0.352,0.003,0.411,0.005,0.011,0.006,-0.341,0.005,0.004,-0.153,
result_0.195_42,1.307,0.267,-0.308,-0.520,0.063,0.513,0.073,-0.494,0.050,0.024,0.092,0.412,-0.353,0.348,0.086,0.036,0.922,-0.006,-0.277,0.222,0.287,-0.267,0.014,0.279,0.408,-0.019,0.114,0.006,0.336,0.550,-0.273,0.243,0.010,-0.000,-0.324,0.141,0.033,0.020,0.058,0.569,0.013,-0.263,0.004,0.020,-0.468,
result_0.199_43,1.159,0.002,-0.105,-0.330,0.000,0.408,-0.005,-0.345,-0.010,-0.003,-0.008,0.002,-0.515,0.023,0.106,0.304,0.052,-0.006,-0.459,0.660,0.038,-0.128,-0.005,0.282,0.002,0.811,0.320,-0.011,0.362,0.012,-0.055,0.348,-0.001,-0.006,-0.045,0.231,-0.002,0.842,-0.000,0.120,-0.003,-0.582,-0.002,-0.000,-0.014,
result_0.190_44,0.985,0.300,-0.762,-0.045,0.148,0.642,0.009,-0.854,0.028,0.202,0.066,0.204,-0.040,0.818,0.199,0.378,0.516,-0.002,-0.077,-0.001,-0.001,-0.043,0.030,0.065,0.196,0.732,0.901,0.003,0.332,0.388,-0.043,0.027,0.026,-0.181,-0.111,0.358,0.028,-0.001,0.144,0.066,0.145,-0.025,0.072,0.028,-0.037,
result_0.189_45,0.765,0.033,-0.004,-0.005,0.075,-0.001,-0.003,-0.688,-0.041,0.034,-0.042,0.615,-0.006,0.417,0.082,1.064,0.141,0.002,-0.006,-0.000,-0.001,-0.759,-0.436,0.568,0.046,0.418,0.134,-0.061,0.008,-0.001,-0.364,1.099,0.269,0.004,-0.091,0.002,0.310,0.552,0.018,0.001,0.048,-0.099,-0.050,0.010,-0.330,
result_0.191_46,1.125,0.002,-0.113,-0.928,0.007,1.191,-0.010,-0.072,-0.035,0.007,-0.010,0.011,-0.365,0.080,0.045,0.057,0.306,0.002,-0.316,0.144,0.091,-0.040,-0.002,0.138,0.003,0.012,0.318,-0.002,0.357,0.413,-0.310,0.693,0.021,0.007,-0.388,0.295,0.009,0.071,0.007,0.858,0.020,-0.124,-0.003,0.017,-0.159,
result_0.193_47,0.903,0.593,-0.414,-0.098,0.008,0.628,0.010,-0.006,0.007,0.005,0.006,0.224,-0.222,0.558,0.001,0.542,0.313,0.000,-0.093,0.410,-0.012,-0.385,0.004,0.001,0.332,0.444,0.979,0.001,0.353,-0.006,-0.158,0.043,0.010,0.001,-0.712,0.349,0.008,0.590,0.006,0.133,0.005,-0.499,0.018,0.008,-0.393,
result_0.186_48,1.290,0.650,-0.279,-0.042,0.089,-0.002,0.065,-0.412,0.250,0.013,0.064,0.663,-0.349,-0.002,0.021,-0.004,-0.001,-0.001,-0.155,0.695,0.486,-0.183,0.027,0.076,0.037,0.044,0.102,0.064,0.056,0.000,-0.084,0.473,0.373,-0.001,-0.176,0.189,0.020,1.006,0.021,0.011,0.012,-0.024,0.029,0.195,-0.984,
result_0.189_49,0.760,-0.010,-0.128,-0.102,0.177,0.051,-0.011,-0.048,-0.002,0.232,-0.003,-0.011,-0.124,0.150,-0.009,1.207,0.057,-0.065,-0.050,0.149,0.081,-0.903,-0.002,0.232,-0.003,0.257,1.104,-0.008,0.137,0.121,-0.149,0.031,0.073,-0.014,-0.144,0.266,0.021,0.309,0.216,0.824,0.113,-0.625,-0.001,0.120,-0.125,
result_0.191_50,0.853,0.457,-0.125,-0.012,0.383,0.002,0.011,-0.048,0.006,0.093,0.006,0.017,-0.074,0.361,0.009,0.817,0.002,0.002,-0.156,0.001,0.003,-0.829,0.004,0.342,0.039,0.261,0.610,0.007,0.251,0.001,-0.490,0.814,0.039,0.002,-0.187,0.044,0.018,0.908,0.075,0.687,0.103,-0.159,0.007,0.026,-0.517,
result_0.189_51,1.026,-0.009,-0.309,-0.092,0.106,-0.010,0.001,-0.244,0.003,0.132,0.015,0.651,-0.634,-0.008,-0.005,0.963,0.408,0.003,-0.052,-0.002,-0.008,-0.651,0.000,0.089,0.555,0.166,0.112,0.009,0.198,-0.005,-0.543,0.851,0.308,0.007,-0.018,0.338,0.146,0.735,0.075,-0.007,0.077,-0.182,0.001,0.076,-0.076,
result_0.213_52,0.727,-0.000,-0.163,-0.186,-0.011,0.003,-0.034,-0.169,-0.114,-0.002,-0.120,-0.000,-0.645,0.596,-0.000,0.001,0.391,0.037,-0.132,0.212,0.436,-0.211,-0.085,0.027,-0.000,-0.001,0.984,-0.112,0.319,0.732,-0.228,0.008,-0.008,0.112,-0.532,0.434,-0.005,0.001,-0.002,0.725,-0.152,-0.148,-0.003,-0.011,-0.273,
result_0.192_53,1.308,0.258,-0.330,-0.105,0.227,0.664,0.010,-0.338,0.081,0.013,0.034,0.051,-0.469,0.002,0.060,0.004,0.034,0.013,-0.382,0.475,0.662,-0.422,0.009,0.210,0.051,0.066,0.103,0.009,0.288,0.694,-0.148,0.040,0.093,0.005,-0.221,0.095,0.016,0.021,0.078,0.861,0.096,-0.576,0.253,0.186,-0.283,
result_0.191_54,0.794,0.099,-0.079,-0.669,0.132,0.084,-0.296,-0.115,-0.004,0.099,-0.090,0.126,-0.114,0.066,0.102,0.053,0.933,0.004,-0.645,0.084,0.704,-0.257,-0.093,0.461,0.196,0.112,0.114,-0.025,0.301,0.049,-0.270,1.027,0.078,0.013,-0.461,0.113,0.008,0.369,0.124,0.714,0.012,-0.094,-0.004,0.151,-0.020,
result_0.187_55,0.811,0.000,-0.223,-0.079,0.189,0.969,0.148,-1.048,0.083,0.054,0.085,0.004,-0.354,0.517,0.014,-0.002,-0.002,-0.010,-0.247,-0.001,-0.001,-0.119,0.170,0.220,0.893,0.166,1.016,-0.000,0.176,0.691,-0.097,0.384,0.059,-0.005,-0.018,0.001,0.305,-0.001,0.060,0.002,0.015,-0.084,0.005,0.122,-0.120,
result_0.194_56,1.135,0.642,-0.015,-0.072,0.145,0.039,0.071,-0.549,0.030,0.129,-0.028,0.026,-0.012,0.009,0.042,0.041,1.068,-0.011,-0.034,0.084,0.026,-0.031,-0.021,0.026,0.532,0.096,0.585,0.069,0.171,0.036,-0.186,0.360,0.208,-0.004,-0.008,0.310,0.162,0.651,0.136,0.011,-0.119,-0.925,-0.016,0.192,-0.255,
result_0.191_57,1.312,0.068,-0.460,-0.238,0.174,1.147,0.013,-0.305,0.006,0.087,0.005,0.107,-0.033,0.103,0.126,0.077,0.070,0.002,-0.206,0.483,0.029,-0.326,0.007,0.329,0.052,0.240,0.113,0.056,0.175,0.085,-0.792,0.173,0.086,0.002,-0.312,0.150,0.063,0.040,0.076,0.775,0.368,-0.137,0.004,0.115,-0.144,
result_0.189_58,0.758,0.179,-0.965,-0.262,0.038,0.601,0.023,-0.153,0.035,0.050,0.024,-0.004,-0.018,0.246,0.842,0.313,-0.013,0.004,-0.562,0.692,0.726,-0.102,0.025,0.347,0.048,-0.023,0.874,0.016,0.300,0.409,-0.026,0.709,0.072,0.002,-0.191,0.015,0.091,-0.018,0.044,-0.015,0.226,-0.074,0.003,0.053,-0.039,
result_0.189_59,1.016,0.307,-0.008,-0.007,0.008,0.048,-0.169,-0.567,-0.041,0.081,-0.041,0.324,-0.008,-0.035,0.344,0.236,0.215,0.001,-0.387,0.699,0.669,-0.674,-0.024,0.176,0.377,0.435,0.028,-0.026,0.153,0.187,-0.007,0.823,0.019,0.001,-0.008,0.343,0.038,0.688,0.134,0.148,0.062,-0.574,-0.029,0.335,-0.009,
result_0.193_60,1.060,0.040,-0.091,-0.407,0.004,0.011,0.064,-0.277,0.001,0.003,0.003,0.039,-0.520,0.777,0.496,0.442,0.019,0.015,-0.488,0.016,0.019,-0.393,0.192,0.003,0.019,0.753,0.318,0.273,0.356,0.136,-0.023,0.727,0.002,0.009,-0.067,0.004,0.004,0.888,0.003,0.173,0.003,-0.592,0.055,0.003,-0.186,
result_0.187_61,0.861,0.009,-0.200,-0.360,0.058,0.483,0.016,-0.005,0.081,0.063,0.007,0.003,-0.349,-0.008,0.345,-0.019,0.558,0.002,-0.559,-0.016,0.467,-0.273,0.180,0.006,0.826,0.004,0.002,0.083,0.226,0.506,-0.706,1.079,0.066,0.007,-0.379,0.202,0.114,0.835,0.058,0.001,0.058,-0.024,0.010,0.324,-0.379,
result_0.192_62,1.194,0.085,-0.348,-0.268,0.021,0.382,0.026,-0.133,0.019,0.069,0.003,0.476,-0.644,0.909,0.198,0.346,0.723,0.002,-0.170,0.004,0.011,-0.599,0.059,0.071,0.016,0.673,0.251,0.024,0.340,0.005,-0.180,0.523,0.078,0.037,-0.308,0.322,0.075,0.122,0.038,0.018,0.008,-0.393,0.034,0.007,-0.149,
result_0.187_63,1.010,0.843,-0.316,-0.049,0.052,0.312,-0.002,-0.411,-0.004,0.310,-0.002,0.126,-0.440,0.221,0.132,0.022,1.031,-0.014,-0.169,0.236,0.619,-0.787,-0.002,0.320,0.063,0.052,0.892,-0.005,0.031,0.054,-0.233,0.061,0.195,-0.029,-0.015,0.002,0.017,0.026,0.188,0.199,0.136,-0.364,-0.003,0.109,-0.243,
result_0.191_64,1.117,0.069,-0.366,-0.184,0.066,0.195,0.036,-0.013,0.042,0.030,0.193,-0.000,-0.072,0.085,0.219,0.667,0.047,0.030,-0.298,0.955,0.150,-0.704,0.145,0.001,-0.004,0.606,0.467,0.149,0.345,0.188,-0.372,0.370,0.054,0.026,-0.519,0.012,0.045,0.078,0.028,0.660,0.064,-0.032,0.169,0.035,-0.002,
result_0.196_65,1.216,0.012,-0.008,-0.003,0.002,0.013,-0.004,-0.004,-0.004,0.001,-0.002,0.004,-0.005,0.908,0.237,0.758,0.015,0.037,-0.367,0.011,0.018,-0.012,-0.002,0.013,0.005,0.606,0.126,-0.002,0.358,0.006,-0.010,0.470,0.001,0.014,-0.011,0.009,0.001,0.363,0.001,0.547,0.001,-0.012,0.392,0.002,-1.043,
result_0.195_66,0.761,0.002,-0.430,-0.324,0.006,0.870,0.000,-0.414,0.000,0.004,0.000,0.002,-0.004,0.079,0.121,0.819,0.099,0.007,-0.429,0.014,0.032,-0.334,0.000,0.235,0.378,0.706,1.004,-0.000,0.347,0.021,-0.206,0.165,0.001,0.000,-0.215,0.259,0.001,0.083,0.004,0.002,0.001,-0.373,0.000,0.003,-0.415,
result_0.206_67,1.149,0.036,-0.039,-0.623,-0.006,0.236,0.014,-0.006,0.062,-0.007,0.062,-0.006,-0.010,0.065,-0.000,0.719,0.851,0.062,-0.013,0.002,0.042,-0.003,0.066,0.277,-0.005,0.792,0.061,0.005,0.365,0.051,-0.398,0.427,-0.002,0.046,-0.335,0.023,-0.001,0.018,-0.008,-0.003,-0.009,-0.009,0.044,-0.008,-0.625,
result_0.190_68,0.787,0.449,-0.579,-0.562,0.146,-0.000,-0.000,-0.282,-0.000,0.333,-0.000,0.616,-0.434,0.589,0.004,1.082,-0.000,-0.001,-0.189,0.343,-0.000,-0.171,-0.007,0.063,0.002,0.459,0.182,-0.000,0.133,-0.001,-0.301,1.069,0.075,-0.003,-0.446,0.341,0.073,-0.000,0.159,0.002,0.154,-0.111,-0.000,0.152,-0.238,
result_0.194_69,0.799,0.634,-0.091,-0.063,0.001,0.092,0.011,-0.038,0.006,0.235,0.008,0.226,-0.186,0.043,0.013,0.906,0.630,-0.000,-0.100,0.597,0.010,-0.191,0.011,0.002,0.439,0.278,0.336,0.255,0.244,0.099,-0.539,0.985,0.189,-0.013,-0.347,0.237,0.002,0.083,0.161,0.245,0.000,-0.745,0.078,0.128,-0.491,
result_0.197_70,0.846,-0.005,-0.077,-0.054,0.097,0.361,0.037,-0.275,0.087,0.119,0.165,0.006,-0.354,0.477,-0.005,0.492,-0.008,-0.006,-0.199,0.488,0.060,-0.163,0.011,0.153,-0.005,0.340,0.157,0.173,0.249,0.569,-0.308,0.938,0.169,-0.012,-0.694,0.196,0.149,0.584,0.052,0.791,0.057,-0.536,0.041,0.014,-0.173,
result_0.191_71,0.824,-0.001,-0.094,-0.213,0.038,0.029,-0.022,-0.548,0.004,0.021,-0.001,-0.002,-0.280,0.001,-0.005,0.764,0.177,-0.035,-0.836,0.021,0.276,-0.197,-0.002,0.086,0.535,0.648,0.649,-0.022,0.341,0.723,-0.304,0.812,0.027,-0.003,-0.151,0.335,0.016,0.630,0.013,-0.005,0.036,-0.056,0.003,0.098,-0.126,
result_0.193_72,0.992,0.290,-0.389,-0.674,0.007,0.033,0.034,-0.421,-0.142,0.008,-0.190,0.030,-0.334,0.055,0.044,0.864,0.062,0.017,-0.336,0.041,0.513,-0.006,-0.013,0.453,0.732,0.129,0.127,-0.113,0.358,0.639,-0.001,0.854,0.003,0.001,-0.004,0.022,0.004,0.406,0.004,0.016,0.117,-0.518,0.028,0.027,-0.124,
result_0.191_73,0.783,0.487,-0.601,-0.361,0.043,0.765,0.117,-0.273,0.109,-0.001,0.016,0.558,-0.152,0.251,0.475,0.689,0.006,-0.009,-0.317,0.012,0.566,-0.103,0.003,0.119,-0.004,0.050,0.903,0.028,0.137,0.371,-0.618,0.577,0.150,-0.007,-0.234,0.261,-0.011,0.086,-0.010,0.035,-0.008,-0.382,0.063,0.372,-0.065,
result_0.189_74,1.163,0.019,-0.872,-0.240,0.091,0.326,0.041,-0.032,0.009,0.006,0.015,0.482,-0.031,0.033,0.491,0.748,0.575,-0.003,-0.030,0.007,0.782,-0.034,0.001,0.062,0.389,0.004,0.032,0.002,0.053,0.256,-0.065,0.714,0.017,-0.019,-0.725,0.335,0.337,0.011,0.023,0.361,0.003,-0.079,0.002,0.218,-0.133,
result_0.191_75,1.311,0.261,-0.117,-0.087,0.007,0.445,0.003,-0.162,0.012,0.005,0.006,0.302,-0.100,0.513,0.542,0.628,0.096,0.002,-0.143,0.275,0.480,-0.092,0.130,0.002,0.532,0.022,0.251,0.268,0.346,0.605,-0.573,0.265,0.005,0.015,-0.577,0.179,0.006,0.366,0.006,0.288,0.005,-0.149,0.012,0.005,-0.775,
result_0.193_76,0.784,0.016,-0.070,-0.589,0.004,0.146,-0.158,-0.544,-0.349,0.004,-0.007,0.079,-0.526,0.118,0.465,0.132,0.050,-0.001,-0.203,1.092,0.684,-0.173,-0.021,0.325,0.535,0.033,1.036,-0.154,0.265,0.060,-0.486,0.397,0.349,-0.000,-0.174,0.408,0.004,0.100,0.004,0.161,0.004,-0.207,-0.022,0.103,-0.231,
result_0.195_77,1.219,0.052,-0.113,-0.084,0.013,0.806,0.003,-0.084,0.002,0.016,0.001,0.655,-0.187,-0.007,0.515,0.150,-0.002,0.017,-0.769,-0.007,-0.004,-0.655,0.000,0.096,0.014,0.020,0.395,0.004,0.336,0.744,-0.025,0.101,0.026,0.025,-0.181,0.340,0.037,0.489,0.002,0.012,0.047,-0.173,0.017,0.034,-0.187,
result_0.194_78,0.887,-0.004,-0.027,-0.602,0.002,0.006,0.017,-0.376,0.010,0.002,0.294,0.574,-0.108,1.143,0.695,0.506,0.005,0.038,-0.552,0.001,0.004,-0.089,0.158,0.003,-0.002,-0.004,0.093,0.004,0.362,0.004,-0.098,0.966,0.002,0.000,-0.556,0.005,0.002,0.005,0.002,-0.003,0.002,-0.335,0.127,0.001,-0.090,
result_0.196_79,1.194,0.042,-0.337,-0.174,0.005,-0.006,-0.078,-0.468,-0.413,0.066,-0.413,0.198,-0.096,-0.000,0.473,0.492,0.956,0.003,-0.191,0.524,-0.008,-0.249,-0.139,0.776,0.003,0.008,0.359,-0.086,0.324,0.129,-0.461,0.129,0.150,-0.000,-0.535,-0.000,0.104,0.030,0.106,0.007,0.006,-0.304,-0.288,0.005,-0.234,
result_0.206_80,0.958,0.424,-0.064,-0.758,-0.006,-0.000,-0.004,-0.245,-0.000,-0.012,-0.001,0.530,-0.129,-0.000,0.337,-0.000,0.840,0.010,-0.328,0.732,0.336,-0.392,-0.000,0.305,0.034,0.020,0.725,-0.003,0.318,-0.000,-0.135,0.269,-0.001,0.005,-0.276,0.000,-0.004,-0.000,-0.013,0.170,-0.010,-0.130,-0.000,-0.010,-0.052,
result_0.196_81,1.074,0.232,-0.151,-0.003,0.002,0.620,0.202,-0.002,0.070,0.008,0.032,0.583,-0.773,0.686,0.632,0.009,0.028,0.011,-0.346,0.011,0.003,-0.003,0.245,0.057,-0.001,0.121,0.599,0.005,0.360,0.819,-0.003,0.342,0.026,0.008,-0.006,0.083,0.026,0.033,0.014,-0.000,0.012,-0.469,0.036,0.019,-0.472,
result_0.188_82,1.042,0.006,-1.011,0.006,0.192,0.473,0.035,0.004,0.096,0.010,0.136,0.003,0.007,0.003,0.664,0.779,0.026,-0.000,-0.635,0.067,0.922,0.007,0.062,0.132,0.053,0.005,0.063,0.267,0.089,0.045,0.007,0.913,0.262,-0.000,0.007,0.019,0.028,0.248,0.163,0.675,0.243,0.006,0.017,0.018,0.007,
result_0.188_83,0.785,-0.010,-0.804,-0.378,0.021,-0.001,0.078,-0.125,0.127,0.327,0.021,-0.018,-0.282,-0.012,0.557,1.187,0.219,0.000,-0.476,0.496,-0.011,-0.332,0.055,0.048,0.748,-0.021,0.932,0.183,0.269,-0.002,-0.025,0.591,0.034,0.011,-0.012,0.005,0.025,-0.000,0.018,-0.017,0.009,-0.240,0.225,0.134,-0.354,
result_0.191_84,1.119,0.002,-0.335,-0.024,0.125,0.005,0.008,-0.621,0.117,0.079,0.139,0.538,-0.168,0.236,0.284,0.727,0.852,0.007,-0.178,0.540,0.005,-0.117,0.005,0.190,0.008,0.627,0.019,0.005,0.317,0.002,-0.737,0.705,0.013,0.025,-0.315,0.217,0.029,0.003,0.050,0.007,0.131,-0.125,0.009,0.139,-0.266,
result_0.191_85,1.145,0.348,-0.037,-0.392,0.057,0.731,0.225,-0.145,0.016,0.067,0.002,0.360,-0.214,0.004,0.188,0.742,0.001,0.010,-0.201,0.786,0.003,-0.405,0.015,0.007,0.274,0.648,0.423,0.005,0.319,0.003,-0.139,0.581,0.071,0.002,-0.026,0.241,0.043,0.004,0.060,0.059,0.031,-0.799,0.041,0.094,-0.541,
result_0.195_86,0.878,0.844,-0.001,-0.001,0.001,0.021,0.005,-0.838,0.012,0.002,0.003,0.030,-0.002,0.636,0.005,0.026,0.091,0.050,-0.004,0.121,1.039,-0.005,0.007,0.111,0.019,0.009,0.027,0.032,0.359,0.007,-0.005,0.939,0.001,0.008,-0.705,0.311,0.001,0.047,0.002,0.008,0.002,-0.002,0.009,0.001,-0.001,
result_0.188_87,1.312,0.017,-0.819,-0.032,0.044,0.145,0.055,-0.029,-0.063,0.046,0.147,0.856,-0.038,0.004,0.001,0.002,0.734,-0.012,-0.029,0.013,0.729,-0.028,-0.101,0.303,0.021,0.012,0.188,-0.015,0.069,0.621,-0.031,0.114,0.070,-0.002,-0.031,0.148,0.040,0.343,0.047,0.018,0.356,-0.035,0.068,0.091,-0.788,
result_0.206_88,0.865,0.182,-0.010,-0.514,-0.012,0.016,-0.020,-0.007,0.038,-0.008,-0.023,0.600,-0.002,0.037,-0.004,0.003,0.016,0.006,-0.006,0.006,1.012,-0.007,-0.225,0.275,0.440,-0.007,0.799,0.007,0.318,0.519,-0.008,0.109,-0.009,0.068,-0.010,0.286,-0.003,0.082,-0.007,0.089,-0.004,-0.521,0.064,-0.005,-0.595,
result_0.190_89,0.987,0.231,-0.620,-0.076,0.420,0.004,0.038,-0.026,0.100,0.011,0.125,0.374,-0.266,0.355,0.041,0.055,0.048,0.000,-0.109,0.380,0.826,-0.060,0.057,0.001,0.797,0.080,0.194,0.246,0.252,0.046,-0.913,0.829,0.018,0.012,-0.069,-0.001,0.012,0.824,0.011,0.011,0.023,-0.064,0.113,0.069,-0.146,
result_0.204_90,0.959,0.017,-0.713,-0.277,0.015,0.116,-0.008,-0.539,-0.006,0.003,-0.005,0.004,-0.014,0.085,0.016,0.056,0.016,0.008,-0.021,0.569,0.178,-0.104,-0.005,0.003,0.033,0.017,0.323,-0.009,0.333,0.854,-0.054,0.688,0.009,0.054,-0.298,0.335,0.005,0.471,0.003,0.834,0.015,-0.036,-0.011,0.010,-0.008,
result_0.191_91,1.021,0.361,-0.235,-0.594,0.139,0.274,0.215,-0.148,0.012,0.072,0.145,0.607,-0.073,1.100,0.002,0.314,0.103,-0.001,-0.132,0.342,0.067,-0.468,0.029,0.049,0.001,0.593,0.842,0.027,0.124,0.313,-0.642,0.030,0.330,-0.003,-0.111,0.028,0.180,0.083,0.070,0.002,0.029,-0.346,0.211,0.204,-0.281,
result_0.193_92,1.189,0.488,-0.430,-0.011,0.002,0.405,0.008,-0.011,0.012,0.002,0.014,0.044,-0.464,0.055,0.040,0.136,0.206,0.008,-0.043,0.369,0.272,-0.531,0.013,0.267,0.718,0.032,0.219,0.012,0.346,1.066,-0.012,0.561,0.002,0.002,-0.012,0.183,0.002,0.011,0.002,0.045,0.003,-0.721,0.002,0.002,-0.291,
result_0.190_93,0.844,0.001,-0.241,-0.041,0.010,0.330,-0.000,-0.067,-0.001,0.322,-0.000,0.001,-0.459,0.312,0.001,0.301,0.103,-0.028,-0.107,0.141,1.081,-0.504,-0.000,0.226,0.001,0.648,1.003,-0.000,0.259,0.035,-0.808,0.087,0.011,-0.008,-0.187,0.248,0.161,0.283,0.012,0.574,0.012,-0.156,-0.000,0.063,-0.167,
result_0.201_94,0.826,0.420,-0.434,-0.237,0.036,0.599,-0.001,-0.113,-0.010,0.025,-0.003,0.001,-0.007,0.579,0.003,-0.012,-0.013,0.070,-0.487,0.189,0.397,-0.232,-0.156,0.003,0.002,0.619,0.382,-0.000,0.322,0.722,-0.260,0.866,0.032,0.010,-0.161,0.382,0.256,-0.001,0.024,0.357,0.011,-0.198,-0.075,0.019,-0.608,
result_0.192_95,0.971,0.597,-0.014,-0.213,0.026,0.027,0.003,-0.173,0.007,0.067,0.007,-0.001,-0.053,0.102,-0.002,0.188,0.056,0.001,-0.596,0.696,0.829,-0.163,0.006,0.257,0.172,0.279,0.175,0.008,0.304,0.648,-0.058,0.899,0.063,0.001,-0.914,0.236,0.278,0.088,0.051,0.523,0.095,-0.195,0.006,0.020,-0.149,
result_0.198_96,0.850,0.005,-0.309,-0.111,0.000,0.001,0.000,-0.170,0.000,0.001,0.000,0.477,-0.098,0.631,0.432,0.001,0.682,0.002,-0.098,0.551,0.551,-0.029,0.000,0.286,0.481,0.135,0.703,0.002,0.359,0.182,-0.988,0.684,0.000,0.006,-0.042,0.225,0.000,0.001,0.001,0.006,0.001,-0.058,0.002,0.000,-0.164,
result_0.192_97,1.294,0.002,-0.633,-0.345,0.013,0.322,-0.096,-0.201,-0.065,0.025,-0.020,0.019,-0.269,0.048,0.787,0.532,0.410,0.004,-0.195,0.376,0.117,-0.537,-0.053,0.351,0.033,0.045,0.072,-0.006,0.339,0.220,-0.007,0.003,0.004,0.004,-0.457,0.150,0.079,0.885,0.045,0.244,0.005,-0.126,-0.085,0.035,-0.186,
result_0.194_98,1.217,0.378,-0.440,-0.453,0.001,0.967,0.008,-0.092,0.121,0.001,0.014,0.001,-0.449,0.014,0.527,0.549,0.003,0.009,-0.100,0.011,0.001,-0.110,0.008,0.124,0.187,0.001,0.337,0.005,0.358,0.012,-0.638,0.029,0.001,0.026,-0.043,0.163,0.001,0.482,0.001,0.560,0.001,-0.139,0.252,0.001,-0.294,
result_0.194_99,1.102,0.027,-0.111,-0.509,0.001,0.504,0.040,-0.122,0.033,0.001,0.142,0.040,-0.348,0.414,0.512,-0.011,0.000,0.018,-0.537,-0.005,0.860,-0.537,0.022,0.224,0.629,0.122,0.512,0.013,0.332,0.505,-0.182,0.309,0.001,0.014,-0.133,0.193,0.001,-0.009,0.001,0.006,0.001,-0.267,0.048,0.001,-0.095,
result_0.191_100,1.197,0.162,-0.038,-0.041,0.163,0.857,0.012,-0.787,0.015,0.082,0.245,0.012,-0.011,0.003,0.506,0.005,0.006,0.006,-0.617,0.308,0.793,-0.066,0.018,0.036,0.720,0.134,0.053,0.123,0.199,0.010,-0.020,0.543,0.046,0.004,-0.013,0.128,0.276,0.303,0.074,0.017,0.070,-0.464,0.152,0.018,-0.043,
result_0.193_101,1.266,0.543,-0.153,-0.572,0.008,0.733,0.001,-0.031,0.015,0.003,0.002,0.282,-0.033,0.014,0.303,0.628,0.005,0.012,-0.320,0.698,0.002,-0.190,0.002,0.294,-0.025,-0.032,0.375,0.008,0.354,0.428,-0.602,0.105,0.002,0.015,-0.346,0.184,0.003,0.006,0.003,0.506,0.004,-0.552,0.031,0.006,-0.050,
result_0.195_102,0.762,0.000,-0.138,-0.159,0.012,0.163,0.121,-0.263,0.008,0.002,0.075,0.198,-0.660,0.436,0.496,1.038,0.148,-0.047,-0.022,0.131,0.053,-0.362,0.073,0.003,0.002,0.004,0.681,0.187,0.420,0.161,-0.619,0.784,0.003,-0.178,-0.191,0.287,0.005,0.378,0.005,0.676,0.008,-0.141,0.011,0.002,-0.249,
result_0.190_103,0.999,0.579,-0.033,-0.028,0.193,0.442,0.081,-0.188,0.085,0.132,0.193,0.005,-0.073,0.009,0.533,0.758,0.001,-0.000,-0.616,0.008,0.001,-0.587,0.043,0.006,0.330,0.273,0.036,0.085,0.132,0.915,-0.123,0.890,0.015,-0.004,-0.220,0.001,0.000,0.001,0.125,0.236,0.203,-0.075,0.230,0.196,-0.687,
result_0.190_104,1.215,0.080,-0.074,-0.612,0.075,0.410,-0.002,-0.073,-0.000,0.307,-0.001,0.499,-0.022,0.759,0.250,-0.003,0.146,-0.017,-0.861,-0.001,0.941,-0.015,-0.002,0.356,0.596,0.029,0.565,-0.002,0.278,0.173,-0.072,0.128,0.043,-0.097,-0.172,-0.000,0.111,-0.017,0.287,0.275,0.043,-0.087,-0.002,0.089,-0.435,
result_0.201_105,1.177,0.006,-0.147,-0.222,0.007,0.003,-0.002,-0.414,-0.006,0.043,-0.229,0.183,-0.057,0.002,0.083,0.002,0.835,-0.009,-0.008,0.184,0.018,-0.120,-0.007,0.380,0.008,0.001,0.318,-0.454,0.370,0.009,-0.305,0.006,0.042,-0.018,-0.123,0.555,0.003,0.824,0.045,0.571,0.007,-0.605,-0.270,0.003,-0.555,
result_0.188_106,1.312,0.229,-0.263,-0.762,0.044,0.046,0.001,-0.904,0.011,0.153,0.011,0.633,-0.003,0.142,0.022,1.075,0.149,-0.001,-0.016,0.711,0.172,-0.003,0.001,0.055,0.006,0.621,0.318,0.002,0.056,0.127,-0.056,0.364,0.117,-0.001,-0.018,0.318,0.247,0.207,0.151,0.009,0.133,-0.043,0.008,0.168,-0.070,
result_0.220_107,0.990,0.371,-0.022,-0.484,-0.033,0.621,0.019,-0.032,0.064,-0.013,0.012,0.001,-0.029,0.229,0.001,-0.001,0.506,0.045,-0.004,0.637,-0.003,-0.067,-0.051,0.040,0.677,0.001,0.625,0.019,0.407,-0.002,-0.012,0.067,-0.044,0.113,-0.630,0.338,-0.049,0.325,-0.001,0.001,-0.049,-0.441,-0.026,-0.047,-0.047,
result_0.189_108,1.076,0.263,-0.196,-0.240,0.141,0.630,0.016,-0.348,0.104,0.038,0.055,0.323,-0.533,0.103,0.075,0.480,0.222,-0.106,-0.628,0.153,0.061,-0.109,0.098,0.374,0.180,0.756,0.734,0.035,0.260,0.935,-0.210,0.282,0.234,-0.148,-0.218,0.080,0.150,0.169,0.037,0.040,0.122,-0.504,0.044,0.279,-0.258,
result_0.190_109,0.905,0.002,-0.596,-0.090,0.201,0.244,0.031,-0.628,0.027,0.223,-0.524,0.002,-0.176,-0.012,0.001,0.251,0.282,-0.091,-0.458,0.100,0.875,-0.582,-0.170,0.906,0.023,0.002,0.043,0.006,0.089,-0.003,-0.172,1.032,0.010,-0.064,-0.104,0.335,0.024,0.866,0.095,0.027,0.370,-0.068,-0.713,0.097,-0.178,
result_0.196_110,0.666,0.016,-0.190,-0.198,0.005,0.004,0.044,-0.005,0.024,0.010,0.041,0.849,-0.493,0.327,0.006,0.414,0.012,0.003,-0.189,0.577,0.013,-0.072,0.006,0.001,0.018,0.005,0.879,0.004,0.368,0.005,-0.006,0.672,0.003,0.013,-0.578,0.333,0.007,0.943,0.007,0.026,0.006,-0.356,0.048,0.008,-0.568,
result_0.191_111,1.229,0.259,-0.244,-0.022,0.211,0.065,0.008,-0.043,0.013,0.234,0.101,0.019,-0.877,0.084,0.009,0.102,0.112,-0.039,-0.518,0.828,0.139,-0.090,0.081,0.040,0.003,0.762,0.416,0.044,0.150,0.920,-0.075,0.259,0.094,-0.006,-0.362,0.290,0.060,0.024,-0.022,0.357,0.123,-0.083,0.118,0.129,-0.062,
result_0.192_112,1.304,0.460,-0.031,-0.016,0.011,0.031,0.225,-0.028,0.065,0.012,0.220,-0.031,-0.031,0.820,-0.015,0.020,0.119,-0.030,-0.541,0.030,0.423,-0.279,0.072,0.070,0.425,0.451,0.427,0.015,0.360,0.920,-0.019,0.116,0.004,-0.051,-0.665,0.026,0.006,0.014,0.011,0.494,0.011,-0.259,0.047,0.019,-0.755,
result_0.199_113,0.919,0.096,-0.652,-0.326,0.001,0.835,-0.113,-0.009,-0.206,0.003,-0.001,0.032,-0.197,0.000,0.093,0.385,0.233,0.010,-0.363,-0.000,-0.000,-0.313,-0.224,0.890,0.158,0.055,0.883,-0.617,0.315,0.000,-0.494,0.150,0.006,0.017,-0.255,0.014,0.004,0.732,0.004,0.008,0.048,-0.113,-0.425,0.183,-0.244,
result_0.193_114,0.793,0.223,-0.047,-0.875,0.010,1.030,0.025,-0.424,0.192,0.003,0.012,0.531,-0.260,0.011,-0.001,0.006,0.541,0.044,-0.183,0.002,0.502,-0.095,0.015,0.198,-0.001,0.677,0.001,0.188,0.344,0.010,-0.265,1.061,0.002,0.009,-0.110,0.105,0.010,0.034,0.002,-0.002,0.005,-0.362,0.024,0.003,-0.108,
result_0.193_115,0.783,0.341,-0.064,-0.095,0.003,0.089,0.090,-0.158,0.190,0.007,0.021,0.073,-0.023,0.520,0.074,0.995,0.047,-0.022,-0.523,0.017,0.111,-0.056,0.164,0.018,0.550,0.040,1.034,0.015,0.358,0.160,-0.482,0.183,0.005,-0.021,-0.149,0.030,0.022,0.526,0.006,0.634,0.005,-0.537,0.198,0.004,-0.650,
result_0.190_116,1.256,0.512,-0.071,-0.043,0.018,0.043,0.141,-0.045,-0.004,0.031,-0.019,0.459,-0.192,0.034,0.543,0.644,1.022,-0.001,-0.057,0.403,0.004,-0.042,0.131,-0.001,-0.019,-0.019,0.099,0.024,0.102,0.030,-0.051,0.433,0.030,-0.000,-0.409,0.299,0.447,0.004,0.032,-0.028,0.039,-0.067,-0.015,0.009,-1.052,
result_0.190_117,0.946,-0.009,-0.856,-0.045,0.106,-0.017,0.015,-0.042,0.010,0.192,0.037,-0.012,-0.049,0.466,0.734,-0.009,0.626,-0.010,-0.086,0.493,0.696,-0.025,-0.014,0.281,-0.002,0.351,0.225,-0.030,0.112,0.516,-0.122,0.921,0.132,-0.001,-0.706,0.213,0.051,-0.016,0.202,0.312,0.040,-0.092,-0.058,0.224,-0.147,
result_0.194_118,0.930,0.315,-0.045,-0.043,0.078,0.257,0.009,-0.029,0.084,0.093,0.087,0.175,-0.027,0.027,0.681,0.950,0.250,-0.001,-0.781,0.234,0.002,-0.158,-0.074,0.230,0.328,-0.001,0.894,-0.063,0.330,0.010,-0.277,0.164,0.039,-0.001,-0.617,0.267,0.058,0.665,0.092,-0.000,0.073,-0.186,-0.051,0.030,-0.328,
result_0.189_119,1.335,-0.024,-0.029,-0.629,0.009,1.288,0.069,-0.514,0.254,0.114,0.024,0.530,-0.011,0.104,0.427,0.041,0.097,-0.001,-0.858,0.060,0.118,-0.033,0.011,0.001,0.497,0.210,0.010,0.033,0.042,0.096,-0.015,0.348,0.056,-0.001,-0.013,-0.001,0.226,0.042,0.118,0.397,0.129,-0.011,0.196,0.204,-0.041,
result_0.204_120,0.722,0.069,-0.066,-0.094,0.019,-0.001,-0.338,-0.257,0.007,0.001,0.006,0.047,-0.474,0.279,0.475,0.691,0.766,0.001,-0.120,-0.004,0.442,-0.111,-0.433,0.017,0.007,0.080,0.957,-0.160,0.334,-0.004,-0.810,0.008,0.001,0.016,-0.094,0.644,0.007,-0.002,0.001,0.397,0.008,-0.081,0.004,0.008,-0.026,
result_0.190_121,0.908,0.370,-0.103,-0.135,0.109,1.107,0.004,-0.241,0.003,-0.016,0.007,0.194,-0.120,0.082,0.370,0.045,0.106,-0.000,-0.382,0.527,0.201,-0.529,0.032,0.347,-0.008,0.191,0.785,0.001,0.137,0.068,-0.317,0.569,0.246,-0.000,-0.596,0.007,0.308,0.175,-0.004,0.627,-0.066,-0.556,0.003,-0.047,-0.012,
result_0.195_122,1.341,0.140,-0.042,-0.052,0.001,0.392,0.169,-0.185,0.104,0.001,0.003,0.203,-0.368,0.637,0.753,0.630,-0.007,-0.005,-0.050,0.524,0.085,-0.581,0.010,0.269,0.353,0.149,0.051,0.044,0.348,0.680,-0.125,0.075,0.001,-0.004,-0.716,0.017,0.001,-0.014,0.001,0.202,0.001,-0.053,0.040,0.001,-0.558,
result_0.192_123,1.243,0.054,-0.115,-0.507,0.003,0.735,0.044,-0.211,0.077,0.004,0.068,0.011,-0.341,0.204,0.461,0.002,0.004,-0.033,-0.075,0.023,0.023,-0.099,0.267,0.027,0.749,0.255,0.381,0.071,0.357,0.307,-0.554,0.337,0.005,-0.006,-0.170,0.025,0.004,0.991,0.004,0.027,0.004,-0.396,0.165,0.009,-0.645,
result_0.194_124,0.813,0.682,-0.269,-0.331,0.029,0.973,0.134,-0.508,-0.002,0.052,-0.001,0.349,-0.227,0.269,0.308,0.421,0.007,-0.000,-0.039,0.198,0.565,-0.599,0.144,0.122,-0.002,-0.002,0.624,0.243,0.125,0.245,-0.195,0.875,0.207,-0.000,-0.190,0.121,0.172,0.086,0.223,0.382,0.007,-0.585,-0.002,0.218,-0.239,
result_0.201_125,1.170,0.012,-0.547,-0.085,0.008,0.237,-0.054,-0.122,-0.087,0.010,-0.507,0.023,-0.101,0.779,0.223,0.091,0.210,0.024,-0.085,0.003,0.035,-0.084,-0.436,0.901,0.010,0.141,0.076,-0.020,0.321,0.850,-0.305,0.328,0.011,0.016,-0.749,0.009,0.000,0.042,0.014,0.011,0.009,-0.216,-0.447,0.003,-0.092,
result_0.190_126,0.788,0.001,-0.228,-0.105,0.054,-0.006,-0.019,-0.227,-0.007,0.233,-0.003,0.761,-0.057,-0.004,0.097,0.076,0.926,0.011,-0.676,0.197,-0.010,-0.846,-0.021,0.270,0.392,0.092,1.092,-0.002,0.022,0.472,-0.114,0.126,0.035,0.023,-0.031,0.201,0.031,0.702,0.325,0.014,0.039,-0.058,-0.000,0.015,-0.008,
result_0.189_127,1.372,0.575,-0.025,-0.796,0.112,0.000,0.021,-0.288,0.038,0.022,0.013,0.520,-0.053,1.059,0.001,0.100,0.001,-0.000,-0.094,0.533,0.001,-0.249,0.012,0.047,0.009,0.010,0.205,0.199,0.357,0.378,-0.183,0.054,0.102,-0.013,-0.722,0.018,0.150,0.511,0.025,0.537,0.033,-0.420,0.266,0.096,-0.090,
result_0.192_128,1.264,0.714,-0.165,-0.500,0.279,0.605,0.132,-0.405,0.193,0.076,0.088,0.062,-0.159,0.154,0.001,0.117,0.725,-0.028,-0.827,0.881,0.012,-0.165,0.109,0.001,0.000,0.001,0.582,0.121,0.112,0.213,-0.156,0.044,0.321,-0.090,-0.185,0.050,0.091,0.211,0.106,0.652,0.033,-0.425,0.198,0.167,-0.246,
result_0.194_129,0.682,0.000,-0.309,-0.259,0.107,0.678,0.140,-0.187,0.268,0.192,0.050,0.000,-0.316,-0.001,0.000,0.185,0.100,0.005,-0.419,-0.001,-0.001,-0.309,0.004,0.022,0.106,0.000,0.701,0.026,0.211,0.669,-0.303,0.874,0.214,0.002,-0.285,0.021,0.007,0.747,0.169,0.914,0.123,-0.299,0.167,0.112,-0.576,
result_0.191_130,1.177,0.447,-0.159,-0.377,0.135,0.702,0.060,-0.550,0.049,0.193,0.245,0.345,-0.133,0.672,-0.000,0.156,0.278,-0.008,-0.285,0.067,0.664,-0.387,0.079,0.002,0.364,0.609,0.063,0.084,0.153,0.068,-0.444,0.574,0.120,-0.001,-0.274,0.082,0.130,0.151,0.176,-0.000,0.080,-0.303,0.179,0.123,-0.396,
result_0.194_131,1.299,0.046,-0.111,-0.142,0.002,0.905,-0.467,-0.689,-0.486,0.101,-0.276,0.061,-0.350,0.015,0.030,0.551,0.670,0.012,-0.148,0.161,0.067,-0.620,-0.133,0.211,0.077,0.009,0.368,-0.248,0.014,0.159,-0.533,0.122,0.027,0.000,-0.122,0.865,0.021,0.143,0.121,0.075,0.452,-0.076,-0.267,0.098,-0.060,
result_0.189_132,0.719,0.272,-0.271,-0.257,0.090,0.961,0.014,-0.591,0.013,0.063,0.035,0.641,-0.447,-0.018,-0.015,0.516,-0.001,-0.001,-0.220,0.673,-0.010,-0.364,0.344,0.011,-0.036,-0.004,0.857,0.025,0.152,-0.001,-0.057,0.760,0.054,-0.001,-0.530,0.016,0.065,0.134,0.164,0.622,0.279,-0.076,0.055,0.182,-0.454,
result_0.190_133,0.980,0.731,-0.658,-0.017,0.004,0.335,0.018,-0.027,0.168,0.016,0.059,0.512,-0.492,0.385,0.006,0.459,0.699,0.001,-0.226,0.835,-0.002,-0.236,0.151,0.226,0.001,0.002,0.006,0.008,0.225,-0.002,-0.316,0.917,0.279,0.002,-0.140,-0.000,0.095,-0.001,0.004,0.007,0.252,-0.578,0.141,0.004,-0.313,
result_0.194_134,1.233,0.009,-0.013,-0.018,0.039,0.239,0.027,-0.015,0.006,0.033,0.003,0.016,-0.754,0.036,0.014,0.046,0.887,0.000,-0.015,0.073,0.763,-0.680,0.002,0.308,0.331,0.663,0.337,0.006,0.336,0.103,-0.409,0.177,0.003,0.020,-0.011,0.160,0.004,0.100,0.014,0.418,0.006,-0.023,0.019,0.065,-0.010,
result_0.192_135,0.889,0.464,-0.078,-0.036,0.015,0.528,0.220,-0.170,0.019,0.060,0.189,0.026,-0.720,0.907,0.016,-0.007,0.401,0.001,-0.816,-0.003,0.614,-0.051,0.089,0.010,0.418,0.620,0.973,0.022,0.323,-0.007,-0.169,0.254,0.035,0.006,-0.243,0.136,0.036,-0.004,0.036,0.291,0.039,-0.042,0.046,0.010,-0.079,
result_0.199_136,1.032,0.364,-0.002,-0.003,0.183,0.373,0.014,-0.005,-0.155,0.145,0.014,0.139,-0.006,0.187,0.366,0.634,0.489,-0.066,-0.006,0.224,0.071,-0.002,-0.161,0.091,0.551,0.119,0.126,-0.127,0.293,0.763,-0.007,0.734,-0.000,-0.046,-0.006,0.391,-0.004,0.219,-0.004,0.259,0.063,-1.079,0.005,0.186,-0.004,
result_0.206_137,1.202,0.749,-0.012,-0.129,0.019,0.616,-0.007,-0.005,-0.163,0.002,-0.229,-0.002,-0.004,0.004,-0.003,0.717,0.079,-0.073,-0.601,0.646,0.003,-0.003,-0.022,0.478,-0.004,-0.001,0.145,-0.013,0.300,0.003,-0.399,0.184,0.002,-0.007,-0.009,0.033,0.016,0.002,0.006,-0.003,0.006,-0.008,-0.080,0.010,-0.684,
result_0.192_138,1.262,0.014,-0.316,-0.293,0.002,0.006,0.028,-0.162,0.104,0.002,0.077,0.262,-0.164,0.885,0.017,0.086,0.906,0.006,-0.974,0.007,0.247,-0.103,0.220,0.090,0.034,0.876,0.472,0.124,0.357,0.005,-0.009,0.028,0.002,-0.000,-0.290,0.148,0.002,0.050,0.002,0.032,0.002,-0.010,0.108,0.002,-0.272,
result_0.195_139,1.155,0.079,-0.553,-0.090,0.006,1.129,0.016,-0.415,0.023,0.022,0.035,-0.000,-0.071,0.115,-0.003,0.114,0.000,0.004,-0.126,0.000,0.523,-0.405,0.031,0.033,-0.001,0.801,0.628,0.335,0.367,0.001,-0.573,0.052,0.028,0.002,-0.343,0.087,0.003,0.000,0.003,0.453,0.003,-0.275,0.053,0.027,-0.237,
result_0.190_140,0.880,0.005,-0.047,-0.093,0.127,0.192,0.011,-0.577,0.014,0.140,0.002,0.002,-0.070,0.161,0.003,0.395,0.200,-0.138,-0.353,0.518,0.550,-0.097,0.003,0.071,0.001,0.867,0.057,0.007,0.190,0.188,-0.057,1.033,0.266,-0.181,-0.096,0.012,0.025,0.890,0.075,0.353,0.237,-0.880,0.411,0.007,-0.276,
result_0.190_141,0.899,0.003,-0.085,-0.776,0.054,0.744,-0.001,-0.054,-0.007,0.041,-0.001,0.005,-0.040,0.589,0.006,0.238,0.088,-0.087,-0.082,0.572,0.512,-0.509,0.000,0.359,0.484,0.508,0.229,0.000,0.156,0.000,-0.446,0.947,0.013,0.002,-0.215,0.057,0.179,0.232,0.262,0.519,0.121,-0.119,-0.001,0.222,-0.356,
result_0.190_142,1.244,-0.006,-0.351,-0.338,0.005,0.047,0.106,-0.489,0.044,0.085,0.003,-0.001,-0.250,0.057,0.814,0.151,0.081,0.000,-0.275,0.975,0.024,-0.494,0.124,0.286,-0.005,-0.010,0.027,0.145,0.100,0.531,-0.268,0.478,0.081,0.001,-0.147,0.018,0.028,0.599,0.281,0.410,0.116,-0.292,0.046,0.113,-0.523,
result_0.191_143,1.009,0.346,-0.126,-0.002,0.036,0.085,0.110,-0.324,0.242,0.043,0.006,0.451,-0.033,0.914,0.570,0.250,0.063,0.002,-0.686,0.204,0.877,-0.865,0.006,0.023,0.172,0.401,0.388,0.138,0.321,0.085,-0.069,0.821,0.014,0.002,-0.052,0.140,0.099,0.077,0.127,0.008,0.083,-0.174,0.097,0.116,-0.126,
result_0.193_144,0.988,0.679,-0.019,-0.438,0.220,0.412,-0.002,-0.041,-0.004,0.007,0.040,0.214,-0.022,0.201,0.445,0.467,0.953,-0.000,-0.022,0.273,0.404,-0.030,-0.001,0.010,-0.004,0.343,0.539,0.166,0.259,0.236,-0.747,0.685,0.340,-0.001,-0.766,0.198,0.008,0.274,0.015,0.016,0.026,-0.018,0.222,0.012,-0.043,
result_0.194_145,1.125,0.070,-0.032,-0.713,0.083,1.093,0.016,-0.108,0.137,0.031,0.027,0.004,-0.339,-0.001,0.525,0.580,-0.001,0.059,-0.473,-0.000,-0.001,-0.053,0.004,0.233,0.027,0.470,0.119,0.143,0.329,-0.001,-0.137,0.644,0.018,0.008,-0.167,0.122,0.040,-0.001,0.045,0.517,0.091,-0.220,0.019,0.009,-0.489,
result_0.195_146,0.887,0.130,-0.211,-0.083,0.002,0.525,-0.075,-0.245,-0.060,0.002,-0.479,0.495,-0.461,0.695,0.280,-0.010,-0.007,-0.039,-0.209,0.089,0.415,-0.513,-0.077,0.651,0.185,0.189,1.029,-0.199,0.354,0.720,-0.273,0.031,0.002,-0.037,-0.644,0.002,0.002,0.435,0.002,0.123,0.002,-0.251,-0.052,0.003,-0.339,
result_0.192_147,1.248,0.729,-0.152,-0.404,0.011,0.003,0.061,-0.043,0.127,0.020,0.103,0.014,-0.223,0.002,0.164,0.316,0.006,0.001,-0.126,0.221,0.002,-0.668,0.003,0.280,0.013,0.446,0.112,0.093,0.346,1.057,-0.186,0.415,0.009,0.010,-0.405,0.001,0.062,0.575,0.011,0.014,0.016,-0.591,0.048,0.024,-0.195,
result_0.194_148,0.775,0.576,-0.255,-0.008,0.009,0.669,0.186,-0.258,0.115,0.031,0.180,0.636,-0.165,0.639,-0.002,0.240,-0.003,-0.000,-0.926,0.376,-0.002,-0.010,0.039,0.176,0.064,0.101,0.975,0.018,0.337,0.652,-0.257,0.165,0.002,0.032,-0.172,0.058,0.002,0.202,0.025,-0.005,0.002,-0.009,0.037,0.002,-0.165,
result_0.193_149,1.330,-0.015,-0.937,-0.124,0.040,0.298,0.009,-0.231,0.082,0.010,0.076,0.488,-0.089,0.007,-0.006,0.314,0.636,-0.001,-0.113,0.748,0.068,-0.193,0.140,0.047,0.697,0.053,0.042,0.022,0.147,0.669,-0.090,0.124,0.159,-0.001,-0.501,0.294,0.101,0.020,0.381,0.105,0.010,-0.182,0.033,0.005,-0.120,
result_0.190_150,1.160,0.020,-0.236,-0.515,0.007,0.064,0.088,-0.443,0.172,0.192,0.171,0.419,-0.034,0.208,0.046,0.612,0.135,-0.016,-0.297,0.243,0.493,-0.316,0.052,0.134,0.036,0.002,0.672,0.018,0.021,0.964,-0.600,0.015,0.136,-0.016,-0.329,0.139,0.297,0.077,0.192,0.871,0.251,-0.359,0.124,0.031,-0.160,
result_0.188_151,1.134,0.323,-0.074,-0.084,0.266,0.002,-0.051,-0.072,0.007,0.147,0.002,0.582,-0.037,0.538,0.004,0.003,0.002,0.007,-1.092,0.002,0.003,-0.153,-0.044,0.313,0.058,0.574,0.731,-0.027,0.227,0.001,-0.052,0.264,0.023,0.002,-0.012,0.162,0.022,1.207,0.156,0.002,0.099,-0.382,0.002,0.252,-0.211,
result_0.193_152,1.305,0.475,-0.085,-0.205,0.002,0.807,-0.206,-0.460,-0.167,0.002,-0.133,0.034,-0.259,0.058,0.067,0.440,0.109,0.001,-0.413,0.052,0.830,-0.506,-0.048,0.773,0.067,0.015,0.273,-0.145,0.341,0.248,-0.534,0.086,0.002,0.002,-0.398,0.002,0.002,0.105,0.002,0.049,0.002,-0.333,-0.594,0.002,-0.026,
result_0.190_153,0.923,-0.002,-0.543,-0.560,0.263,0.663,-0.010,-0.069,-0.004,0.015,-0.006,0.246,-0.236,0.981,-0.003,0.012,0.016,0.000,-0.338,0.001,0.007,-0.075,-0.003,0.325,-0.001,0.677,0.923,-0.001,0.184,0.012,-0.180,0.247,0.089,0.000,-0.014,0.099,0.236,0.463,0.092,0.473,0.243,-0.626,-0.002,0.082,-0.303,
result_0.190_154,1.233,-0.002,-0.169,-0.099,0.170,0.029,0.003,-0.207,0.031,0.092,0.017,-0.002,-0.133,0.046,0.498,0.430,0.296,-0.023,-0.383,0.949,0.093,-0.465,0.015,0.003,0.220,0.379,0.085,0.065,0.186,0.540,-0.140,0.445,0.144,-0.006,-0.830,0.337,0.109,0.296,0.176,0.526,0.195,-0.081,0.002,0.016,-0.304,
result_0.192_155,0.987,0.393,-0.008,-0.627,0.004,0.001,0.064,-0.352,0.122,0.004,0.189,0.368,-0.343,0.001,0.481,0.461,0.224,0.002,-0.378,0.613,0.846,-0.122,0.125,0.048,0.495,-0.020,0.261,0.039,0.348,0.486,-0.341,0.834,0.004,0.001,-0.269,0.210,0.004,0.001,0.004,0.069,0.004,-0.149,0.005,0.004,-0.531,
result_0.195_156,0.955,0.037,0.001,0.001,0.001,0.180,-0.482,-0.671,-0.029,0.001,-0.279,0.149,-0.000,0.545,0.341,0.683,0.030,0.013,-0.056,0.095,0.845,0.000,-0.072,0.820,0.114,0.036,0.863,-0.049,0.370,0.099,-0.001,0.166,0.001,0.024,-0.406,0.002,0.015,0.058,0.001,0.002,0.005,-0.770,-0.494,0.003,-0.115,
result_0.193_157,1.041,0.544,-0.112,-0.032,0.243,0.441,0.092,-0.193,0.061,0.040,0.075,0.095,-0.060,-0.007,0.719,0.684,-0.027,0.019,-0.467,-0.009,0.577,-0.357,0.081,0.101,0.019,0.007,0.204,0.061,-0.001,-0.007,-0.567,0.773,0.014,0.026,-0.098,0.104,0.176,0.725,0.047,0.003,0.263,-0.393,0.270,0.042,-0.577,
result_0.190_158,1.254,0.072,-0.921,-0.510,0.281,1.040,0.036,-0.028,0.024,0.063,0.005,0.534,-0.020,0.380,0.541,0.072,0.238,0.018,-0.455,0.404,0.135,-0.045,0.021,0.122,0.045,0.446,0.513,0.200,0.108,0.381,-0.031,0.028,0.198,0.021,-0.001,0.194,0.149,0.076,0.146,0.120,0.027,-0.010,0.035,0.209,-0.113,
result_0.191_159,1.001,0.000,-0.331,-0.025,0.011,0.010,0.068,-0.557,-0.014,0.058,-0.053,0.381,-0.057,0.274,0.516,0.009,0.270,-0.003,-0.256,0.493,0.007,-0.490,0.069,0.073,0.325,0.477,0.808,-0.042,0.078,1.064,-0.356,0.040,0.011,-0.003,-0.385,0.335,0.126,0.013,0.046,-0.000,0.009,-0.311,-0.028,0.356,-0.243,
result_0.195_160,1.102,0.006,-0.050,-0.026,0.002,0.581,0.109,-0.371,0.224,0.001,0.107,0.006,-1.041,0.052,0.868,0.131,0.124,0.005,-0.063,0.122,0.569,-0.081,0.035,0.070,0.281,0.002,0.395,0.217,0.343,0.961,-0.070,0.573,0.001,0.004,-0.043,0.002,0.001,0.002,0.001,0.081,0.002,-0.047,0.105,0.001,-0.027,
result_0.194_161,1.268,0.003,-0.241,-0.129,0.227,0.563,0.029,-0.019,0.047,0.202,0.050,0.001,-0.908,1.069,0.538,0.109,0.124,0.017,-0.078,0.082,0.067,-0.106,0.050,0.019,0.543,0.490,0.193,0.295,0.280,0.230,-0.441,0.084,0.101,0.024,-0.156,0.143,0.001,0.124,0.003,0.021,0.003,-0.113,0.099,0.096,-0.235,
result_0.189_162,0.840,0.484,-0.280,-0.477,0.011,0.499,0.020,-0.166,0.020,0.032,0.022,0.505,-0.276,0.153,0.491,0.131,0.094,0.005,-0.085,0.015,0.920,-0.428,0.202,0.041,0.163,0.076,1.030,0.194,0.195,0.089,-0.087,0.182,0.074,0.001,-0.374,0.053,0.033,0.691,0.051,0.293,0.008,-0.517,0.171,0.380,-0.552,
result_0.194_163,1.303,0.704,-0.602,-0.066,0.007,0.147,0.024,-0.009,0.015,0.001,0.229,-0.014,-0.335,0.176,0.291,0.121,0.991,0.005,-0.008,0.046,0.005,-0.442,0.022,0.253,0.216,0.402,0.126,0.020,0.346,0.030,-0.398,0.252,0.001,0.009,-0.674,0.079,0.001,0.758,0.001,0.058,0.003,-0.008,0.015,0.003,-0.014,
result_0.196_164,0.792,-0.005,-0.779,-0.096,0.018,0.966,0.034,-0.144,0.024,0.009,-0.121,0.714,-0.053,0.472,0.125,0.143,0.008,0.000,-0.093,0.384,0.210,-0.679,-0.111,0.233,-0.007,0.300,1.047,-0.060,0.347,0.008,-0.357,0.141,0.021,0.010,-0.036,0.256,0.012,0.474,0.011,0.375,0.015,-0.093,0.006,0.019,-0.191,
result_0.196_165,0.714,0.119,-0.015,-0.121,0.005,0.593,-0.010,-0.105,-0.511,0.002,-0.485,0.058,-0.166,-0.000,0.248,-0.001,-0.000,0.003,-0.316,0.638,-0.001,-0.298,-0.009,0.361,0.081,0.100,0.257,-0.454,0.328,0.843,-0.448,0.990,0.007,0.012,-0.739,0.816,0.011,-0.000,0.002,0.056,0.008,-0.277,-0.003,0.004,-0.181,
result_0.192_166,0.812,0.724,-0.461,-0.489,0.032,0.086,0.060,-0.298,0.057,0.125,0.054,0.298,-0.102,0.612,0.040,-0.001,0.512,0.023,-0.145,0.755,-0.001,-0.263,0.162,0.007,0.362,0.305,0.139,0.221,0.299,0.601,-0.031,1.030,0.146,0.022,-0.672,0.016,0.031,-0.001,0.124,0.090,0.113,-0.296,0.186,0.003,-0.301,
result_0.192_167,0.878,0.035,-0.691,-0.148,0.005,0.000,0.001,-0.294,0.219,0.005,0.007,0.001,-0.065,0.055,0.008,0.296,0.930,0.020,-0.178,-0.004,0.473,-0.215,0.002,0.097,0.847,0.291,0.851,0.017,0.348,0.036,-0.662,0.427,0.004,0.004,-0.048,0.053,0.005,0.631,0.005,0.036,0.004,-0.189,0.248,0.004,-0.320,
result_0.193_168,1.206,0.221,-0.295,-0.289,0.016,0.406,-0.004,-0.669,-0.006,0.242,-0.007,-0.000,-0.438,-0.000,-0.000,0.505,0.433,0.001,-0.131,0.000,0.371,-0.307,-0.003,0.338,0.779,0.241,0.320,-0.002,0.292,0.870,-0.414,0.356,0.087,0.000,-0.018,0.072,0.052,-0.001,0.089,-0.001,0.002,-0.319,-0.003,0.020,-0.017,
result_0.193_169,0.871,0.753,-0.148,-0.024,0.034,0.230,-0.113,-0.481,0.199,0.101,0.084,0.329,-0.714,0.704,-0.006,0.113,0.578,0.010,-0.109,0.399,0.144,-0.058,-0.108,0.327,-0.019,-0.022,0.158,-0.117,0.192,0.017,-0.041,0.911,0.100,0.005,-0.096,-0.000,0.041,0.625,0.142,0.193,0.181,-0.173,0.051,0.186,-0.572,
result_0.189_170,0.872,0.148,-0.012,-0.408,0.037,0.087,0.221,-0.007,0.147,0.013,0.014,0.475,-0.262,0.003,0.153,0.571,0.709,0.000,-0.258,0.806,0.373,-0.330,0.041,0.131,0.107,0.677,0.987,0.060,0.154,0.016,-0.636,0.231,0.102,0.000,-0.336,0.128,0.085,0.004,0.032,0.319,0.341,-0.207,0.017,0.006,-0.588,
result_0.186_171,1.370,0.539,-0.219,-0.237,0.147,0.008,0.096,-0.816,-0.002,0.077,0.002,0.016,-0.233,0.189,0.034,0.083,1.162,-0.004,-0.397,0.176,0.130,-0.064,-0.002,0.272,0.308,0.076,0.234,0.057,-0.010,0.574,-0.064,0.255,0.231,-0.026,-0.132,0.145,0.090,0.209,0.006,0.660,0.082,-0.085,0.033,0.338,-0.716,
result_0.202_172,1.250,0.558,-0.601,-0.495,0.007,-0.008,-0.001,-0.077,-0.001,0.010,-0.157,0.039,-0.091,0.410,0.041,-0.005,-0.005,0.005,-0.119,-0.008,-0.006,-0.139,-0.021,0.276,0.073,0.068,0.228,-0.001,0.307,0.372,-0.476,0.138,0.061,0.023,-0.367,0.231,0.018,1.084,0.006,0.588,0.022,-0.141,-0.001,0.150,-0.351,
result_0.192_173,0.786,0.182,-0.511,-0.534,0.135,0.145,0.071,-0.297,0.033,0.008,0.099,0.255,-0.293,-0.001,0.011,0.693,0.422,0.013,-0.259,0.090,0.235,-0.262,0.209,-0.105,0.846,0.165,1.014,0.222,0.345,0.255,-0.511,0.035,0.007,0.017,-0.034,-0.003,0.006,0.846,0.088,0.011,0.007,-0.182,0.091,0.007,-0.263,
result_0.191_174,1.243,0.557,-0.418,-0.069,0.051,0.051,0.021,-0.158,0.100,0.153,0.034,0.581,-0.713,0.929,-0.019,0.015,0.669,-0.007,-0.479,0.526,0.081,-0.121,0.109,0.144,-0.026,-0.034,0.413,0.070,0.126,0.054,-0.017,0.288,0.064,-0.003,-0.618,0.110,0.247,0.213,0.341,0.448,0.062,-0.039,0.246,0.003,-0.059,
result_0.198_175,1.052,0.003,-0.576,-0.585,0.001,0.410,0.000,-0.016,0.148,0.001,0.286,0.647,-0.002,0.237,0.018,0.000,0.168,0.039,-0.017,-0.008,-0.007,-0.357,0.001,0.065,0.020,0.032,0.081,0.001,0.359,0.203,-0.009,0.635,0.001,0.041,-0.008,0.143,0.009,1.055,0.002,0.577,0.011,-0.536,0.001,0.001,-0.014,
result_0.199_176,0.760,0.074,-0.309,-0.263,0.050,0.134,-0.303,-0.033,-0.371,0.100,-0.074,0.075,-0.259,0.062,0.077,0.125,1.139,0.007,-0.160,0.042,0.021,-0.482,-0.266,0.821,0.075,0.072,0.126,-0.505,0.340,0.263,-0.496,0.974,0.005,0.003,-0.037,0.128,0.005,0.122,0.003,0.075,0.182,-0.228,-0.080,0.005,-0.472,
result_0.197_177,0.743,0.029,-0.328,-0.332,0.000,0.524,-0.363,-0.516,-0.197,0.002,-0.409,0.073,-0.214,0.706,0.042,-0.010,-0.002,-0.043,-0.403,0.000,0.054,-0.080,-0.178,0.056,0.256,0.370,0.556,-0.170,0.356,0.065,-0.083,0.864,0.001,-0.040,-0.320,0.771,0.000,0.846,0.000,0.029,0.001,-0.105,-0.209,0.001,-0.590,
result_0.196_178,1.153,0.006,-0.027,-0.343,-0.000,0.764,-0.014,-0.281,-0.629,0.172,-0.015,0.002,-0.296,0.027,0.006,0.443,0.003,0.000,-0.581,0.676,0.073,-0.128,-0.146,0.021,0.009,0.009,0.079,-0.584,0.280,0.055,-0.087,0.443,-0.000,0.000,-0.376,0.937,0.178,0.261,0.000,0.013,0.073,-0.538,-0.011,0.000,-0.066,
result_0.198_179,0.756,0.862,-0.148,-0.952,0.016,0.009,0.021,-0.055,0.009,0.002,0.004,0.019,-0.196,0.076,0.028,0.309,0.901,0.006,-0.014,0.763,0.067,-0.026,0.055,0.185,0.024,0.036,1.025,0.186,0.347,0.079,-0.431,0.201,0.001,0.037,-0.039,0.012,0.001,0.012,0.011,0.028,0.002,-0.051,0.228,0.017,-0.052,
result_0.190_180,1.098,0.043,-0.478,-0.428,0.106,0.292,-0.210,-0.385,-0.020,0.130,-0.365,0.240,-0.214,0.670,0.227,0.533,0.398,0.001,-0.619,0.000,0.000,-0.340,-0.135,0.763,0.159,0.293,0.717,-0.174,0.153,0.000,-0.149,0.322,0.009,0.001,-0.367,0.009,0.291,0.817,0.164,0.277,0.103,-0.023,-0.483,0.045,-0.216,
result_0.190_181,1.010,0.826,-0.154,-0.662,0.195,0.209,0.006,-0.023,0.135,0.001,0.105,0.012,-0.472,0.112,0.139,0.250,0.953,-0.009,-0.014,0.173,0.361,-0.589,0.189,-0.008,0.008,0.048,0.066,0.060,0.100,0.572,-0.025,0.822,0.000,-0.006,-0.024,-0.013,0.000,0.068,0.252,0.373,0.000,-0.466,0.214,0.288,-0.022,
result_0.190_182,0.741,-0.014,-0.712,-0.106,0.024,-0.001,-0.161,-0.027,-0.178,0.335,-0.245,-0.006,-0.589,0.863,-0.015,-0.002,-0.002,0.003,-0.560,-0.000,0.346,-0.083,-0.236,0.006,0.501,-0.001,0.933,0.000,0.137,0.822,-0.133,0.523,0.011,0.000,-0.049,0.604,0.028,-0.001,0.014,0.477,0.240,-0.124,-0.276,0.015,-0.170,
result_0.190_183,1.303,0.020,-0.618,-0.196,0.034,0.015,-0.046,-0.392,-0.003,0.191,-0.053,0.190,-0.122,0.216,0.614,0.698,0.015,-0.008,-0.141,0.381,0.016,-0.179,-0.050,0.299,0.083,0.597,0.396,-0.028,0.015,0.159,-0.624,0.028,0.053,-0.002,-0.432,0.226,0.118,1.011,0.135,0.016,0.371,-0.091,-0.044,0.111,-0.414,
result_0.193_184,0.650,0.025,-0.919,-0.033,0.001,0.002,0.007,-0.029,0.004,0.003,0.007,0.012,-0.015,0.129,0.339,1.020,0.069,0.011,-0.033,0.706,0.012,-0.266,0.003,0.300,0.354,0.449,0.880,-0.048,0.335,0.136,-0.026,0.732,0.002,0.016,-0.020,0.195,0.001,0.083,0.001,0.496,0.001,-0.596,-0.058,0.001,-0.016,
result_0.186_185,1.197,0.497,-0.067,-0.472,0.055,0.019,0.077,-0.609,0.158,0.057,0.097,0.587,-0.039,0.386,0.484,0.079,0.042,-0.001,-0.086,0.607,0.815,-0.066,0.084,0.054,-0.010,-0.003,0.479,0.136,0.035,0.345,-0.094,0.419,0.050,-0.001,-0.751,0.057,0.038,0.614,0.026,-0.000,0.367,-0.118,0.164,0.039,-0.437,
result_0.190_186,1.266,0.754,-0.034,-0.147,0.213,0.084,0.005,-0.045,0.003,0.020,0.020,0.185,-0.084,0.046,0.229,0.060,0.562,-0.002,-0.533,0.993,0.106,-0.228,0.022,0.053,0.001,0.001,0.318,0.235,0.119,0.247,-0.569,0.294,0.004,-0.027,-0.017,0.257,0.022,0.441,0.194,0.297,0.234,-0.051,0.018,0.024,-0.777,
result_0.191_187,1.164,0.901,-0.647,-0.545,0.210,0.002,0.020,-0.486,0.155,0.164,0.032,-0.000,-0.096,0.591,0.000,0.008,0.615,0.023,-0.146,0.880,0.005,-0.351,0.028,0.024,-0.001,-0.001,0.281,0.268,0.247,0.010,-0.185,0.425,0.019,0.000,-0.111,0.007,0.047,0.012,0.190,-0.001,0.100,-0.049,0.025,0.120,-0.162,
result_0.188_188,1.305,0.073,-0.173,-0.227,0.072,0.771,0.231,-0.587,0.021,0.191,0.104,0.333,-0.406,0.019,0.055,0.409,0.701,0.004,-0.090,0.418,0.410,-0.730,0.121,0.015,0.491,0.417,0.184,0.164,0.234,0.066,-0.173,0.002,0.036,-0.000,-0.155,0.002,0.037,0.113,0.353,0.584,0.037,-0.368,0.100,0.093,-0.046,
result_0.198_189,0.841,0.700,-0.037,-0.038,0.000,0.265,0.057,-0.035,-0.221,0.000,0.048,-0.001,-0.037,0.660,-0.000,0.351,0.769,-0.148,-0.741,0.154,0.208,-0.052,-0.114,0.498,0.212,-0.001,0.926,-0.095,0.359,0.183,-0.497,0.024,0.000,-0.006,-0.040,0.016,0.000,0.319,0.000,-0.001,0.000,-0.506,-0.198,0.000,-0.050,
result_0.188_190,1.341,0.499,-0.725,-0.411,0.139,0.207,0.113,-0.463,0.095,0.048,0.047,0.515,-0.275,1.230,-0.008,0.102,0.038,-0.012,-0.087,0.281,0.017,-0.467,0.062,0.285,0.520,-0.013,0.031,0.015,0.052,0.091,-0.321,0.069,0.070,-0.013,-0.130,0.102,0.051,0.159,0.071,0.037,0.048,-0.021,0.017,0.430,-0.148,
result_0.190_191,1.256,0.026,-0.266,-0.044,0.129,0.681,0.012,-0.345,0.086,0.022,0.157,0.027,-0.188,-0.006,0.032,0.434,0.000,-0.000,-0.122,0.332,0.661,-0.010,0.090,0.204,0.041,0.903,0.357,0.184,0.341,0.586,-0.391,0.342,0.045,-0.001,-0.949,0.057,0.021,0.373,0.021,0.049,0.022,-0.243,0.027,0.044,-0.127,
result_0.190_192,0.833,0.521,-0.141,-0.372,0.008,0.726,0.021,-0.114,0.082,0.250,0.073,0.447,-0.137,0.684,0.034,0.006,0.131,0.000,-0.122,0.742,0.001,-0.691,0.014,0.125,0.011,0.046,0.626,0.297,0.133,0.077,-0.218,0.811,0.144,0.001,-0.189,0.046,0.096,0.005,0.195,0.602,0.103,-0.679,0.007,0.114,-0.204,
result_0.195_193,1.282,-0.001,-0.009,-0.173,0.002,0.241,-0.107,-0.654,-0.256,0.002,-0.022,0.034,-0.005,0.174,-0.001,0.051,0.101,-0.004,-0.009,0.170,0.044,-0.006,-0.032,0.450,0.000,-0.001,0.070,-0.041,0.372,0.973,-0.339,0.151,0.002,-0.141,-0.803,0.181,0.002,0.678,0.045,0.781,0.002,-0.009,-0.162,0.002,-0.131,
result_0.195_194,0.971,0.451,-0.073,-0.511,0.019,0.384,-0.670,-0.611,-0.011,0.009,-0.006,0.019,-0.050,0.440,0.040,0.034,0.715,0.006,-0.055,0.024,0.218,-0.083,-0.010,0.232,0.166,0.056,0.094,-0.009,0.357,0.497,-0.021,0.843,0.024,0.001,-0.601,0.719,0.021,0.616,0.028,0.191,0.033,-0.415,-0.011,0.037,-0.056,
result_0.191_195,1.247,0.045,-0.235,-0.333,0.054,-0.001,0.087,-0.442,0.283,0.106,0.098,0.034,-0.068,0.858,0.033,0.095,0.754,0.034,-0.409,0.574,-0.003,-0.488,0.084,0.039,0.920,0.047,0.419,0.048,0.316,0.031,-0.406,0.175,0.043,0.001,-0.455,0.075,0.042,0.002,0.027,0.056,0.047,-0.357,0.129,0.204,-0.308,
result_0.194_196,0.876,0.505,-0.326,-0.144,0.053,0.177,0.064,-0.934,0.034,0.204,0.066,-0.004,-0.067,0.086,-0.003,0.248,0.200,0.021,-0.058,-0.005,-0.003,-0.207,0.078,0.320,0.688,-0.004,0.631,0.026,0.333,0.787,-0.136,0.674,0.030,0.001,-0.221,0.032,0.033,0.871,0.009,-0.001,0.008,-0.086,0.040,0.015,-0.190,
result_0.191_197,1.289,-0.003,-0.733,-0.031,0.132,1.009,0.261,-0.378,0.114,0.206,0.072,0.784,-0.046,-0.001,-0.002,0.730,-0.000,-0.001,-0.247,-0.000,-0.001,-0.051,0.008,0.030,0.472,-0.002,0.032,0.123,0.113,-0.001,-0.013,0.261,0.134,-0.001,-0.063,0.018,0.165,-0.001,0.054,-0.001,0.100,-0.039,0.123,0.202,-0.690,
result_0.192_198,0.821,0.043,-0.030,-0.013,0.079,0.378,0.136,-0.176,0.242,0.091,0.004,-0.002,-0.992,0.675,-0.003,-0.005,-0.001,-0.094,-0.024,0.000,0.361,-0.074,0.058,0.018,-0.006,0.280,0.111,0.242,0.306,0.599,-0.148,1.087,0.012,-0.129,-0.587,0.007,0.180,0.769,0.198,0.875,0.060,-0.146,0.051,0.032,-0.067,
result_0.192_199,0.920,0.797,-0.350,-0.540,0.089,0.445,0.083,-0.344,-0.017,0.020,-0.004,0.367,-0.481,0.023,0.051,0.902,0.004,-0.000,-0.040,0.753,0.120,-0.642,0.227,0.151,0.043,0.064,0.809,0.203,0.175,0.037,-0.244,0.507,0.119,-0.004,-0.028,0.037,0.042,0.009,0.196,0.088,0.164,-0.140,-0.017,0.198,-0.105,
result_0.190_200,1.332,0.022,-0.066,-0.601,0.110,0.163,-0.031,-0.122,-0.055,0.328,-0.066,0.042,-0.623,0.053,0.029,0.027,0.218,-0.004,-0.174,1.105,0.544,-0.395,-0.077,0.405,0.002,0.831,0.026,-0.025,0.145,0.057,-0.038,0.082,0.127,-0.120,-0.062,0.000,0.142,0.049,0.105,0.034,0.011,-0.312,-0.120,0.020,-0.476,
result_0.192_201,1.211,0.826,-0.089,-0.500,0.016,0.889,0.012,-0.108,0.002,0.300,0.003,0.001,-0.034,0.510,0.001,0.746,0.013,0.001,-0.799,0.007,0.012,-0.096,0.035,0.015,0.001,0.000,0.094,0.001,0.182,0.012,-0.083,0.546,0.222,0.002,-0.029,0.384,0.088,0.008,0.116,0.001,0.015,-0.092,0.000,0.091,-0.579,
result_0.192_202,0.824,0.086,-0.016,-0.092,0.190,0.898,0.150,-0.757,0.171,0.110,0.097,0.691,-0.027,0.000,0.105,0.000,-0.001,0.057,-0.125,0.000,0.149,-0.530,0.041,0.083,0.354,0.368,1.065,0.110,0.035,0.399,-0.623,0.054,0.115,0.019,-0.068,0.242,0.237,0.790,0.004,0.176,0.122,-0.027,0.027,0.151,-0.112,
result_0.193_203,1.200,0.275,-0.861,-0.151,0.067,0.549,0.014,-0.166,0.004,0.069,0.213,0.008,-0.036,0.849,0.007,0.748,0.002,0.009,-0.232,0.250,0.002,-0.106,0.007,0.070,0.815,0.008,0.413,0.014,0.202,0.001,-0.097,0.306,0.041,-0.000,-0.334,0.237,0.129,0.001,0.198,0.173,0.171,-0.465,0.083,0.083,-0.080,
result_0.194_204,1.257,0.046,-0.028,-0.038,0.111,0.713,-0.026,-0.102,-0.039,0.002,-0.079,0.608,-0.091,0.227,0.039,-0.003,0.616,0.006,-0.216,0.617,-0.003,-0.226,-0.008,0.144,0.557,0.044,0.063,-0.005,0.341,0.167,-0.489,0.293,0.038,0.002,-0.526,0.334,0.003,0.476,0.012,0.025,0.017,-0.503,-0.029,0.016,-0.554,
result_0.189_205,1.262,0.003,-0.586,0.001,0.055,0.823,-0.121,0.000,-0.008,0.135,-0.200,0.012,-0.265,0.001,0.026,0.071,0.966,0.004,-0.624,0.001,0.048,-0.570,-0.515,0.001,0.023,0.585,0.385,-0.299,0.178,0.001,-0.232,0.160,0.107,0.004,-0.367,0.750,0.053,0.001,0.317,0.029,0.005,0.001,-0.175,0.022,0.001,
result_0.196_206,1.180,0.727,-0.168,-0.489,0.003,0.698,0.036,-0.285,0.065,0.003,0.101,0.375,-0.636,0.763,0.014,0.024,0.023,0.009,-0.466,0.010,0.025,-0.193,0.042,0.014,0.003,0.014,0.593,0.154,0.356,0.682,-0.229,0.230,0.003,0.024,-0.081,0.274,0.002,0.025,0.002,0.348,0.002,-0.464,0.045,0.002,-0.130,
result_0.207_207,1.217,0.000,-0.270,-0.235,-0.002,-0.002,0.002,-0.235,0.012,-0.000,-0.378,0.226,-0.273,0.109,0.000,-0.002,0.655,0.000,-0.287,0.185,0.940,-0.538,0.026,0.411,0.001,0.000,0.059,-0.068,0.344,-0.001,-0.270,0.019,-0.002,0.038,-0.459,0.562,-0.001,-0.000,-0.000,0.476,-0.000,-0.198,-0.464,0.000,-0.200,
result_0.193_208,0.845,-0.001,-0.112,-1.053,0.002,0.129,-0.004,-0.042,-0.001,0.002,-0.004,0.523,-0.045,0.432,0.684,0.515,0.314,-0.004,-0.044,0.757,0.707,-0.011,-0.004,0.349,-0.019,0.073,0.932,-0.010,0.371,0.113,-0.147,0.466,0.002,-0.009,-0.075,0.017,0.002,0.123,0.003,-0.002,0.002,-0.445,-0.004,0.002,-0.069,
result_0.193_209,1.206,0.333,-0.643,-0.427,0.003,-0.006,0.007,-0.304,0.008,0.003,0.004,0.326,-0.024,0.373,0.646,0.220,0.910,0.034,-0.524,0.570,0.475,-0.250,0.004,0.073,0.018,0.014,0.032,0.008,0.344,-0.005,-0.314,0.523,0.003,0.003,-0.355,0.352,0.003,-0.003,0.004,0.284,0.003,-0.060,0.006,0.004,-0.118,
result_0.189_210,1.255,0.003,-0.229,-0.014,0.167,0.028,0.169,-0.671,0.170,0.015,0.023,0.135,-0.284,0.045,0.856,0.510,0.649,-0.002,-0.406,0.133,0.514,-0.361,0.004,0.120,0.001,0.043,0.293,0.006,0.203,0.397,-0.183,0.367,0.098,-0.001,-0.337,0.204,0.248,0.730,0.185,0.237,0.013,-0.481,0.060,0.090,-0.304,
result_0.204_211,0.706,0.059,-0.064,-0.042,-0.006,0.001,0.001,-0.514,-0.225,-0.016,-0.368,0.369,-0.462,0.980,0.325,0.001,0.638,0.047,-0.722,0.001,0.001,-0.008,-0.321,0.475,0.193,0.094,0.712,-0.216,0.326,0.001,-0.036,0.696,-0.007,0.021,-0.077,0.450,0.000,0.001,-0.035,0.059,-0.005,-0.043,0.000,-0.021,-0.104,
result_0.188_212,1.023,0.387,-0.817,-0.205,0.003,0.157,-0.000,-0.724,-0.001,0.043,-0.000,0.319,-0.090,1.256,0.354,0.103,0.103,-0.001,-0.219,0.034,0.076,-0.153,-0.028,0.348,0.011,0.567,0.041,-0.011,0.059,0.117,-0.165,0.888,0.271,-0.001,-0.010,0.052,0.039,0.099,0.287,0.001,0.046,-0.016,-0.001,0.052,-0.037,
result_0.196_213,1.201,0.002,-0.231,-0.131,0.001,-0.001,0.006,-0.209,0.062,0.004,0.125,0.169,-0.219,-0.001,0.436,-0.001,1.083,-0.016,-0.626,0.410,-0.001,-0.133,0.229,0.009,0.003,0.717,0.278,0.100,0.337,0.010,-0.030,0.174,0.003,0.009,-0.024,0.158,0.043,0.238,0.002,0.001,0.003,-0.210,0.075,0.029,-0.695,
result_0.188_214,1.361,0.714,-0.290,-0.052,0.225,0.241,0.011,-0.312,0.062,0.008,0.003,-0.025,-0.392,0.876,0.590,0.805,0.007,-0.001,-0.031,0.032,0.160,-0.501,0.106,0.023,-0.020,0.021,0.254,0.316,0.048,0.060,-0.328,0.159,0.346,-0.002,-0.306,0.009,0.015,0.493,0.007,0.241,0.010,-0.466,0.086,0.069,-0.674,
result_0.194_215,1.277,-0.027,-0.193,-0.111,0.212,0.027,-0.115,-0.348,0.060,0.001,-0.230,0.472,-0.549,0.002,0.380,0.900,0.714,0.002,-0.203,0.057,0.406,-0.270,-0.201,0.300,-0.001,-0.002,0.285,0.092,0.211,0.008,-0.140,0.002,0.001,0.007,-0.317,0.310,0.002,0.213,0.110,0.509,0.006,-0.004,-0.033,0.301,-0.733,
result_0.194_216,1.290,0.047,-0.026,-0.001,0.379,0.058,-0.021,-0.073,-0.026,-0.066,-0.042,0.001,-0.053,0.281,0.312,0.017,1.132,0.007,-0.070,0.032,0.113,-0.893,-0.018,0.145,0.295,0.758,0.102,-0.023,0.159,0.320,-0.011,0.115,-0.095,0.003,-0.074,0.328,-0.199,0.096,-0.123,-0.001,-0.035,-0.627,-0.003,0.275,-0.036,
result_0.190_217,0.720,0.564,-0.548,-0.024,0.004,-0.008,0.171,-0.751,0.007,0.176,0.120,0.041,-0.026,0.387,0.267,0.719,0.739,-0.079,-0.030,0.092,0.321,-0.215,0.006,0.017,0.627,0.001,0.772,0.001,0.131,0.304,-0.039,0.864,0.265,-0.003,-0.663,0.261,0.020,0.511,0.235,0.004,0.049,-0.032,0.001,0.082,-0.114,
result_0.197_218,1.167,0.007,0.013,-0.835,0.098,0.375,0.119,-0.182,0.010,0.114,0.087,0.548,0.009,0.147,0.222,0.015,0.504,-0.033,0.009,0.959,0.311,0.010,0.151,0.016,0.010,0.614,0.152,0.097,0.251,0.205,-0.278,0.505,0.090,-0.004,-0.064,0.280,0.126,0.069,0.151,0.123,0.044,0.002,0.019,0.149,-0.552,
result_0.197_219,1.222,0.366,-0.054,-0.592,0.003,0.019,-0.017,-0.058,-0.001,0.001,-0.003,0.336,-0.087,0.049,0.229,0.137,0.805,-0.091,-0.046,0.048,0.036,-0.824,-0.003,0.234,0.195,0.592,0.201,-0.017,0.362,0.367,-0.348,0.352,0.001,-0.072,-0.071,0.271,0.001,0.836,0.001,0.036,0.006,-0.054,-0.002,0.003,-0.148,
result_0.190_220,1.255,0.001,-0.031,-0.583,0.025,0.456,0.071,-0.538,0.208,0.073,0.089,0.003,-0.065,0.491,0.537,-0.004,-0.004,-0.002,-0.284,-0.002,0.001,-0.077,0.161,0.075,0.002,0.000,0.377,0.128,0.183,0.366,-0.495,0.119,0.033,-0.003,-0.061,0.063,0.012,1.003,0.010,0.752,0.031,-0.541,0.073,0.433,-0.127,
result_0.206_221,0.685,0.577,0.000,0.000,0.001,0.525,-0.004,0.000,-0.053,-0.027,-0.049,0.097,0.001,0.015,0.366,0.034,0.691,0.014,0.001,0.201,0.008,0.000,-0.011,0.238,0.048,0.003,0.713,-0.025,0.320,0.705,-0.736,0.685,0.001,0.091,-0.698,0.254,0.001,0.022,-0.043,0.396,0.001,-0.000,-0.013,0.001,0.001,
result_0.194_222,1.106,0.084,-0.434,-0.416,0.003,0.014,0.031,-0.076,0.036,0.002,0.027,-0.001,-0.085,0.023,0.869,0.602,0.006,0.008,-0.214,0.943,0.557,-0.080,0.065,0.258,-0.004,-0.005,0.666,0.209,0.349,0.026,-0.077,0.263,0.012,0.001,-0.543,0.011,0.013,0.003,0.012,-0.005,0.003,-0.151,0.065,0.002,-0.716,
result_0.199_223,0.945,0.628,-0.182,-0.791,0.001,0.140,0.005,-0.009,0.186,0.001,0.040,0.382,-0.002,0.987,0.450,0.071,0.011,0.008,-0.007,0.140,0.089,-0.028,0.001,0.005,0.035,0.016,0.083,0.013,0.335,0.680,-0.032,0.850,0.001,0.013,-0.664,0.011,0.000,0.195,0.001,0.248,0.001,-0.052,0.312,0.001,-0.031,
result_0.193_224,1.223,0.001,-0.392,-0.392,0.006,0.005,-0.000,-0.035,0.090,0.005,0.310,0.299,-0.187,0.005,0.807,0.003,0.008,0.018,-0.508,0.002,0.008,-0.375,0.104,0.012,0.001,0.058,0.385,0.000,0.353,1.237,-0.455,0.193,0.004,0.013,-0.371,0.004,0.003,0.002,0.004,0.265,0.003,-0.069,0.057,0.003,-0.380,
result_0.188_225,0.849,-0.049,-0.491,-0.572,0.152,0.365,0.088,-0.369,0.080,0.094,0.003,0.611,-0.562,-0.041,0.453,0.827,0.251,-0.001,-0.006,0.475,0.129,-0.014,0.028,0.158,-0.009,-0.045,1.071,0.018,0.062,0.790,-0.216,0.128,0.099,-0.008,-0.443,0.275,0.075,0.087,0.263,0.496,0.213,-0.244,0.122,0.147,-0.295,
result_0.196_226,1.060,0.049,-0.877,-0.113,-0.007,0.726,-0.045,-0.342,-0.040,0.154,0.149,0.386,-0.165,0.363,0.404,0.138,0.031,-0.048,-0.224,0.140,0.018,-0.025,0.043,0.044,0.043,0.558,0.607,0.253,0.329,0.064,-0.021,0.316,-0.006,-0.099,-0.248,0.165,-0.004,0.812,0.014,0.365,-0.002,-0.284,0.131,0.147,-0.009,
result_0.189_227,1.326,0.005,-0.135,-0.054,0.073,0.419,0.204,-0.548,0.231,0.379,0.066,0.406,-0.009,0.139,0.686,0.341,0.314,-0.004,-0.165,0.159,0.053,-0.130,0.127,0.002,0.113,0.005,0.045,0.016,0.096,1.057,-0.524,0.069,0.102,-0.003,-0.494,0.001,0.059,0.186,0.038,0.492,0.131,-0.054,0.004,0.075,-0.634,
result_0.186_228,1.318,0.006,-0.084,-0.208,0.020,0.695,0.043,-0.118,-0.029,0.020,0.070,0.024,-0.011,0.678,0.683,0.230,-0.014,-0.004,-0.854,0.040,0.660,-0.796,-0.013,0.335,0.557,0.128,0.384,-0.035,-0.080,-0.014,-0.077,0.259,0.020,-0.009,-0.118,0.001,0.022,0.594,0.446,0.008,0.022,-0.074,-0.002,0.021,-0.212,
result_0.193_229,0.751,0.392,-0.224,-0.292,0.004,0.887,0.060,-0.549,0.029,0.005,0.173,0.009,-0.209,0.191,0.487,0.007,0.004,0.019,-0.296,0.485,0.001,-0.482,0.221,0.008,0.070,0.066,0.548,0.202,0.344,0.760,-0.075,0.936,0.005,0.017,-0.483,0.010,0.008,0.056,0.009,0.658,0.014,-0.319,0.006,0.005,-0.380,
result_0.189_230,1.349,0.001,-0.006,-0.214,0.033,0.127,-0.009,-0.005,-0.006,0.199,-0.013,0.001,-0.005,0.077,0.582,0.074,0.132,-0.000,-0.006,0.152,0.030,-0.002,-0.013,0.352,0.002,0.002,0.057,-0.005,0.171,0.096,-0.973,0.086,0.054,-0.000,-0.004,0.015,0.212,1.257,0.214,0.650,0.087,-0.183,-0.010,0.108,-0.558,
result_0.189_231,1.267,0.309,-0.437,-0.615,0.214,0.018,0.007,-0.122,0.067,0.009,0.012,0.370,-0.393,0.667,0.727,0.527,0.013,0.003,-0.507,0.011,0.753,-0.387,0.207,0.258,0.013,0.118,0.270,0.010,0.163,0.550,-0.259,0.280,0.114,0.003,-0.070,0.057,0.012,0.025,0.009,0.003,0.243,-0.278,0.008,0.158,-0.058,
result_0.191_232,0.773,0.777,-0.027,-0.070,0.027,1.255,0.070,-0.175,0.134,0.031,0.202,0.011,-0.066,0.001,0.417,0.010,0.016,0.001,-0.709,0.005,0.004,-0.073,0.032,0.144,0.105,0.010,0.685,0.173,0.278,0.004,-0.248,0.796,0.364,0.019,-0.441,0.002,0.043,0.022,0.007,0.010,0.006,-0.681,0.065,0.035,-0.055,
result_0.194_233,1.253,-0.006,-0.503,-0.121,0.011,0.644,0.005,-0.378,0.005,0.011,0.198,-0.007,-0.349,0.200,0.528,0.574,0.099,0.000,-0.414,0.175,0.711,-0.051,0.270,0.076,0.687,0.043,0.013,0.090,0.346,0.235,-0.371,0.336,0.026,0.001,-0.380,0.044,0.015,0.388,0.007,0.255,0.045,-0.149,0.003,0.009,-0.460,
result_0.195_234,1.287,0.559,-0.271,-0.589,0.002,0.006,0.189,-0.147,0.183,0.007,0.054,0.007,-0.230,0.472,0.376,0.739,0.006,0.001,-0.476,0.660,0.659,-0.017,0.053,0.054,0.576,0.047,0.191,0.063,0.348,0.002,-0.212,0.296,0.008,0.022,-0.649,0.009,0.010,0.005,0.012,0.080,0.006,-0.272,0.196,0.006,-0.292,
result_0.191_235,0.801,0.004,-0.188,-0.336,0.049,0.087,-0.001,-0.156,-0.001,-0.005,-0.001,0.011,-0.182,0.023,0.422,0.883,0.564,-0.004,-0.106,0.111,0.562,-0.043,-0.003,0.313,0.732,0.068,1.035,0.000,0.148,0.349,-0.168,0.135,0.165,-0.001,-0.803,0.149,-0.002,0.004,-0.005,0.001,-0.002,-0.559,-0.000,0.343,-0.196,
result_0.193_236,1.296,0.171,-0.012,-0.137,0.010,0.699,0.026,-0.179,0.137,0.005,0.080,0.728,-0.485,0.154,0.293,0.772,0.088,0.007,-0.788,0.068,0.638,-0.158,0.185,0.212,0.007,0.001,0.140,0.023,0.350,0.178,-0.210,0.069,0.006,0.003,-0.039,0.067,0.005,0.049,0.009,0.352,0.010,-0.299,0.085,0.009,-0.417,
result_0.188_237,1.326,0.628,-0.236,-0.649,0.140,0.833,0.013,-0.062,0.012,0.188,0.036,-0.022,-0.458,0.296,0.178,0.064,0.010,-0.001,-0.688,0.001,0.004,-0.142,0.046,0.040,0.092,0.651,0.339,0.172,0.063,0.013,-0.004,0.290,0.242,-0.001,-0.527,0.267,0.031,0.988,0.137,-0.021,0.237,-0.082,0.049,0.071,-0.019,
result_0.190_238,1.278,0.297,-0.347,-0.601,0.026,0.014,0.003,-0.614,0.019,0.008,0.026,0.486,-0.176,0.010,0.612,0.022,0.605,0.008,-0.030,0.872,0.732,-0.234,0.209,0.006,0.001,0.070,0.404,0.001,0.301,0.014,-0.273,0.015,0.184,0.001,-0.010,0.245,0.211,0.024,0.009,0.265,0.032,-0.599,0.003,0.048,-0.006,
result_0.189_239,1.205,0.770,-0.650,-0.241,0.060,0.049,0.119,-0.318,0.034,0.236,0.037,0.003,-0.191,0.825,0.271,0.289,0.560,0.000,-0.077,0.079,0.036,-0.350,0.086,0.250,0.369,0.003,0.620,0.136,0.188,0.694,-0.414,0.188,0.161,0.005,-0.498,0.120,0.034,0.376,0.158,0.002,0.145,-0.399,0.022,0.197,-0.280,
result_0.198_240,1.211,0.008,-0.835,-0.209,0.001,0.421,-0.508,-0.158,-0.213,0.009,0.003,0.003,-0.222,0.011,0.073,0.081,0.090,0.003,-0.121,0.088,0.923,-0.326,0.013,0.385,0.004,0.001,0.303,0.010,0.343,0.088,-0.327,0.091,0.019,0.033,-0.041,0.752,0.001,0.608,0.011,0.009,0.007,-0.030,-0.524,0.021,-0.307,
result_0.194_241,0.980,0.002,-0.005,-0.192,0.005,0.559,-0.009,-0.314,-0.001,0.043,-0.007,0.308,-0.035,0.189,0.001,0.607,0.455,0.009,-0.054,0.100,0.009,-0.652,-0.032,-0.001,0.000,0.770,0.840,-0.003,0.366,0.798,-0.619,0.293,0.022,0.012,-0.145,0.363,0.034,0.039,0.046,0.154,0.022,-0.542,-0.114,0.007,-0.168,
result_0.199_242,0.953,0.689,-0.220,-0.218,0.131,0.195,0.037,-0.135,0.042,0.044,0.006,0.066,-0.080,0.509,0.008,-0.006,0.421,0.037,-0.142,0.011,1.013,-0.137,0.078,0.119,0.504,0.013,0.012,0.008,0.343,-0.003,-0.126,0.869,0.004,0.030,-0.255,0.351,0.045,-0.009,0.042,0.047,0.093,-0.920,0.016,0.133,-0.222,
result_0.190_243,1.060,-0.034,-0.676,-0.612,0.065,-0.001,0.010,-0.002,0.124,0.041,0.124,0.918,-0.223,-0.001,-0.011,-0.001,-0.002,0.003,-0.567,0.455,-0.002,-0.002,0.152,0.209,-0.029,-0.010,0.448,0.083,0.339,-0.001,-0.606,0.844,0.055,0.003,-0.048,0.087,0.059,1.279,0.041,-0.009,0.118,-0.003,0.116,0.042,-0.001,
result_0.194_244,1.054,0.039,-0.198,-0.137,0.053,0.007,-0.116,-0.047,-0.066,0.012,-0.059,0.743,-0.183,0.935,0.042,0.004,0.057,0.005,-0.177,0.611,0.005,-0.154,-0.091,0.261,0.001,0.031,0.282,-0.007,0.338,0.005,-0.206,0.717,0.008,0.002,-0.790,0.293,0.021,0.565,0.007,0.341,0.008,-0.533,-0.020,0.015,-0.425,
result_0.192_245,1.114,0.027,-0.013,-0.004,0.011,0.491,0.052,-1.022,0.013,0.002,0.255,0.018,-0.036,0.025,-0.000,0.109,0.813,0.013,-0.038,0.774,0.081,-0.242,0.069,0.008,0.725,-0.000,0.338,0.043,0.361,0.154,-0.032,0.629,0.003,0.015,-0.006,0.002,0.002,0.217,0.003,0.562,0.003,-0.036,0.216,0.002,-0.443,
result_0.193_246,0.860,0.217,-0.297,-0.435,0.002,0.018,-0.204,-0.600,-0.013,0.003,-0.024,0.586,-0.371,0.033,0.029,0.320,0.289,-0.037,-0.551,0.804,0.780,-0.127,-0.004,0.098,0.007,0.389,0.311,-0.024,0.350,0.013,-0.096,0.940,0.008,-0.009,-0.201,0.399,0.002,0.364,0.003,0.254,0.002,-0.150,-0.003,0.003,-0.325,
result_0.191_247,1.244,0.585,-0.172,-0.419,0.015,0.073,0.028,-0.321,0.002,0.027,0.056,-0.011,-0.360,0.436,0.587,0.068,0.588,-0.003,-0.670,0.078,0.004,-0.383,0.008,0.336,0.177,-0.010,0.119,0.041,0.336,1.025,-0.456,0.416,0.017,-0.001,-0.128,0.023,0.093,0.042,0.088,-0.010,0.067,-0.204,0.002,0.082,-0.021,
result_0.190_248,1.235,0.001,-0.072,-0.118,0.024,-0.005,-0.008,-0.700,-0.151,0.194,-0.395,0.003,-0.167,-0.006,0.003,-0.006,0.038,0.001,-0.449,-0.002,-0.003,-0.116,-0.453,0.759,0.034,0.002,0.318,-0.388,0.210,-0.006,-0.677,0.282,0.045,0.000,-0.027,0.572,0.211,1.255,0.159,0.002,0.212,-0.178,-0.503,0.007,-0.137,
result_0.201_249,0.868,0.359,-0.216,-0.456,0.026,-0.005,-0.008,-0.197,0.045,0.011,-0.096,0.001,-0.537,0.677,0.474,0.472,0.126,0.008,-0.379,0.232,0.624,-0.347,0.107,0.242,0.464,0.197,0.446,-0.132,0.338,0.561,-0.012,0.760,0.001,0.016,-0.428,0.294,0.001,-0.005,0.008,0.236,0.008,-0.209,-0.084,0.033,-0.118,
result_0.194_250,1.337,-0.002,-0.154,-0.294,0.023,0.002,0.001,-0.582,0.001,0.017,0.001,-0.003,-0.197,0.223,0.734,0.699,0.008,0.000,-0.153,0.770,0.650,-0.565,0.001,0.004,-0.006,0.312,0.050,0.001,0.371,0.014,-0.297,0.158,0.006,0.014,-0.319,0.380,0.005,0.346,0.009,0.264,0.059,-0.347,0.012,0.008,-0.487,
result_0.189_251,1.096,0.485,-0.365,-0.469,0.169,0.297,0.180,-0.369,0.038,0.003,-0.007,-0.005,-0.422,-0.004,0.687,1.042,-0.008,-0.004,-0.341,-0.006,0.677,-0.376,0.217,0.180,-0.006,0.299,0.136,-0.010,-0.003,0.076,-0.368,0.853,0.032,-0.002,-0.327,0.111,0.090,-0.008,0.009,0.159,0.263,-0.298,-0.005,0.181,-0.384,
result_0.194_252,0.775,0.654,-0.908,-0.148,0.001,0.162,0.034,-0.207,0.013,0.001,0.086,-0.002,-0.121,0.769,0.506,0.031,0.756,0.013,-0.152,0.102,0.011,-0.550,0.030,0.327,0.213,-0.009,0.330,0.011,0.347,0.579,-0.067,1.012,0.001,0.014,-0.034,0.001,0.001,0.147,0.002,-0.001,0.001,-0.096,0.019,0.001,-0.120,
result_0.195_253,1.121,0.004,-0.396,-0.186,0.018,-0.030,0.025,-0.142,0.023,0.111,0.022,0.406,-0.466,-0.003,0.447,0.692,0.610,0.083,-0.495,-0.002,0.730,-0.236,0.029,0.374,0.539,0.188,0.163,0.038,0.251,-0.009,-0.213,0.614,0.022,0.028,-0.646,0.035,0.196,0.421,0.155,0.010,0.162,-0.045,0.029,0.097,-0.006,
result_0.191_254,0.802,0.015,-0.329,-0.079,0.008,0.212,0.008,-0.512,0.024,0.008,0.031,0.083,-0.540,-0.006,0.337,-0.001,0.406,-0.132,-0.438,0.116,0.465,-0.121,0.012,0.187,0.017,0.089,0.615,0.006,0.362,0.253,-0.113,0.862,0.009,-0.029,-0.111,0.292,0.008,1.055,0.008,0.754,0.008,-0.430,0.022,0.008,-0.488,
result_0.190_255,0.954,0.246,-0.166,-0.291,0.210,0.011,0.013,-0.116,0.134,0.198,0.010,0.637,-0.371,0.301,0.119,0.003,0.024,-0.005,-0.109,0.549,0.820,-0.234,0.049,0.093,0.453,0.204,0.055,0.057,0.214,0.039,-0.454,0.914,0.202,-0.005,-0.416,0.289,0.009,0.751,0.009,0.173,0.091,-0.415,0.059,0.175,-0.635,
result_0.190_256,0.785,0.516,-0.035,-0.697,0.305,0.047,-0.005,-0.539,-0.000,0.312,-0.008,0.331,-0.324,0.031,0.000,0.005,0.003,-0.000,-0.100,0.816,0.944,-0.109,-0.003,0.020,0.017,0.617,0.870,-0.005,0.081,0.007,-0.012,0.662,0.006,-0.001,-0.029,0.351,0.016,0.268,0.016,0.010,0.003,-0.007,-0.002,0.030,-0.623,
result_0.191_257,1.245,0.000,-0.699,-0.500,0.204,-0.004,-0.097,-0.116,-0.020,0.114,-0.065,0.212,-0.107,0.629,0.007,0.026,-0.004,-0.002,-0.074,-0.005,0.545,-0.122,0.032,0.379,-0.000,0.827,0.532,-0.065,0.113,0.470,-0.725,0.172,0.029,-0.110,-0.228,0.003,0.108,0.873,0.031,-0.000,0.257,-0.074,-0.099,0.197,-0.012,
result_0.190_258,1.342,0.386,-0.096,-0.017,0.007,0.005,0.292,-0.361,0.108,0.002,0.030,0.685,-0.686,0.002,-0.001,0.005,0.003,-0.006,-0.574,0.003,0.002,-0.194,0.003,0.057,0.000,-0.001,0.000,0.042,0.040,0.002,-0.388,0.000,0.215,-0.022,-0.012,0.131,0.332,1.274,0.093,0.463,0.003,-0.013,0.032,0.007,-0.460,
result_0.188_259,0.790,0.003,-0.147,-0.079,0.026,-0.009,0.023,-0.014,0.028,0.051,0.012,0.001,-0.804,-0.009,0.001,0.179,-0.003,-0.003,-0.157,-0.000,0.702,-0.380,0.012,0.018,0.389,0.786,0.998,0.021,0.036,1.074,-0.194,0.497,0.318,-0.002,-0.124,0.327,0.047,-0.006,0.164,0.001,0.253,-0.116,0.011,0.059,-0.681,
result_0.190_260,0.738,0.577,-0.159,-0.041,0.172,0.005,0.028,-0.204,0.005,0.173,0.025,0.461,-0.169,0.681,0.003,0.030,0.742,-0.072,-0.287,0.803,0.031,-0.025,0.042,0.324,0.327,0.003,0.612,0.042,0.159,0.045,-0.540,0.948,0.106,-0.013,-0.551,0.041,0.141,0.016,0.192,0.442,0.199,-0.127,0.008,0.010,-0.734,
result_0.194_261,1.279,0.552,-0.911,-0.019,0.004,0.782,0.000,-0.029,0.005,0.004,0.004,0.002,-0.028,0.046,0.001,0.266,0.073,0.024,-0.022,0.695,0.622,-0.167,0.006,0.315,0.001,0.640,0.130,0.005,0.342,0.071,-0.386,0.193,0.003,0.001,-0.008,0.133,0.003,0.017,0.005,0.073,0.004,-0.031,0.008,0.003,-0.474,
result_0.189_262,1.180,0.003,-0.136,-0.053,0.049,0.050,0.001,-0.452,0.002,0.062,0.003,0.576,-0.272,0.901,0.003,0.400,0.026,0.013,-0.877,0.042,0.531,-0.004,0.001,0.058,0.006,0.647,0.336,0.036,0.268,0.118,-0.271,0.491,0.084,0.009,-0.136,0.307,0.281,0.569,0.048,0.001,0.038,-0.162,0.053,0.064,-0.356,
result_0.191_263,0.952,0.004,-0.005,-0.008,0.297,0.265,0.008,-0.004,0.009,0.042,0.005,0.043,-0.012,0.100,0.040,0.085,0.129,0.002,-0.560,0.072,0.009,-0.028,0.374,-0.001,0.877,0.019,0.001,0.006,0.277,0.677,-0.512,0.896,0.022,0.032,-0.267,-0.014,0.042,0.984,0.017,0.024,0.023,-0.346,0.002,0.060,-0.682,
result_0.195_264,0.967,0.829,-0.019,-0.079,0.002,-0.001,0.032,-0.368,0.011,0.001,0.021,0.014,-0.499,-0.002,0.011,-0.001,-0.000,0.001,-0.174,-0.001,0.226,-0.427,0.030,0.002,0.009,0.005,0.276,0.035,0.324,0.709,-0.160,0.798,0.003,0.027,-0.272,0.334,0.003,0.942,0.001,0.184,0.001,-0.591,0.015,0.001,-0.328,
result_0.189_265,1.193,0.036,-0.220,-0.617,0.106,-0.000,0.027,-0.088,0.036,0.004,0.019,0.010,-0.254,0.937,0.035,0.862,0.083,-0.020,-0.249,0.285,-0.000,-0.088,0.001,0.024,0.007,0.877,0.696,0.040,0.037,-0.000,-0.229,0.087,0.082,-0.106,-0.218,0.354,0.023,0.000,0.214,0.032,0.213,-0.370,0.021,0.251,-0.791,
result_0.190_266,1.298,0.017,-0.497,-0.114,0.001,0.001,0.010,-0.323,0.026,0.166,0.008,0.565,-0.144,0.000,0.143,0.001,0.240,-0.000,-0.102,0.652,0.220,-0.840,0.026,0.345,0.370,0.065,0.114,0.028,0.117,1.040,-0.012,0.228,0.003,-0.000,-0.036,0.077,0.025,0.001,0.381,0.484,0.013,-0.029,0.017,0.017,-0.426,
result_0.191_267,0.836,0.240,-0.056,-0.317,0.049,0.574,-0.053,-0.384,0.172,-0.073,-0.295,0.082,-0.436,0.605,0.616,0.028,0.059,0.001,-0.538,0.545,0.251,-0.047,-0.291,0.293,-0.018,-0.009,0.978,0.544,0.124,0.480,-0.357,0.041,-0.138,-0.000,-0.299,0.149,0.140,0.471,0.289,0.540,0.266,-0.483,-0.379,0.080,-0.206,
result_0.193_268,1.235,0.659,-0.094,-0.376,0.014,0.394,0.062,-0.401,0.069,0.087,0.262,-0.006,-0.259,0.122,0.592,-0.001,-0.000,0.002,-0.144,-0.002,0.710,-0.300,0.084,0.117,-0.005,-0.017,0.002,0.093,0.334,0.704,-0.063,0.276,0.004,0.031,-0.107,0.001,0.002,0.538,0.033,-0.023,0.078,-0.544,0.048,0.013,-0.606,
result_0.194_269,0.798,-0.005,-0.023,-0.503,0.044,0.020,0.123,-0.223,0.047,0.057,0.069,0.234,-0.169,0.023,0.266,0.761,0.020,0.003,-0.527,0.022,0.002,-0.309,0.015,0.041,0.530,0.168,1.008,0.015,0.338,0.029,-0.550,0.080,0.037,0.029,-0.355,0.291,0.023,0.975,0.039,0.537,0.052,-0.081,0.091,0.002,-0.257,
result_0.194_270,1.285,0.047,-0.100,-0.624,0.039,0.700,0.038,-0.218,0.015,0.026,0.002,0.166,-0.348,0.345,0.703,0.464,0.127,0.002,-0.157,-0.001,0.120,-0.712,0.009,0.266,0.030,0.519,0.120,0.023,0.335,0.773,-0.064,0.193,0.049,0.009,-0.353,0.165,0.019,0.327,0.005,0.063,0.028,-0.157,0.001,0.028,-0.102,
result_0.188_271,1.338,-0.004,-0.018,-0.101,-0.026,0.055,-0.016,-0.645,0.011,-0.046,0.056,0.589,-0.641,0.128,0.000,0.134,0.095,-0.002,-0.042,0.086,0.127,-0.508,-0.217,0.015,0.658,-0.014,0.497,0.282,0.037,0.177,-0.145,0.033,0.201,-0.002,-0.008,0.308,0.012,1.328,0.132,-0.015,0.316,-0.597,-0.090,0.184,-0.355,
result_0.193_272,1.188,0.742,-0.215,-0.029,0.119,0.073,-0.025,-0.135,-0.003,0.054,-0.036,0.083,-0.936,0.792,0.012,0.576,0.048,0.000,-0.108,0.067,0.564,-0.117,-0.001,0.288,0.105,0.060,0.514,-0.005,0.230,0.577,-0.032,0.276,0.308,0.001,-0.471,0.243,0.089,0.044,0.190,0.315,0.047,-0.299,-0.003,0.098,-0.022,
result_0.194_273,1.247,0.474,-0.483,-0.001,0.001,0.686,-0.087,-0.561,0.002,0.001,-0.008,0.006,-0.338,0.024,0.039,0.077,0.110,0.013,-0.124,0.206,0.018,-0.344,-0.115,0.098,0.217,0.635,0.395,-0.030,0.335,0.998,-0.656,0.082,0.001,0.018,-0.001,0.329,0.001,0.002,0.001,0.012,0.001,-0.180,-0.054,0.001,-0.001,
result_0.198_274,0.981,-0.010,-0.014,-0.650,0.001,0.500,0.150,-0.287,0.094,0.005,-0.006,0.586,-0.419,-0.000,-0.007,0.501,0.000,0.022,-0.269,0.551,0.827,-0.009,0.036,0.002,0.637,-0.002,0.757,-0.017,0.357,0.194,-0.158,0.250,0.001,0.044,-0.014,0.287,0.002,-0.000,0.001,-0.016,0.007,-0.635,-0.011,0.003,-0.011,
result_0.194_275,0.939,0.143,-0.111,-0.138,0.004,0.756,0.159,-0.026,-0.014,0.003,-0.007,-0.004,-0.230,0.571,-0.004,-0.001,-0.001,-0.053,-0.196,-0.003,-0.000,-0.788,-0.008,0.029,-0.005,0.844,0.028,0.209,0.352,-0.002,-0.468,0.912,0.003,-0.041,-0.335,0.237,0.004,0.809,0.004,0.193,0.003,-0.401,-0.007,0.004,-0.083,
result_0.194_276,0.935,0.444,-0.461,-0.590,0.002,0.050,0.043,-0.644,0.028,0.002,0.098,-0.025,-0.311,0.204,-0.019,0.152,0.991,0.012,-0.084,0.293,0.335,-0.051,-0.133,0.413,0.001,0.545,0.397,-0.235,0.337,0.289,-0.361,0.801,0.002,0.002,-0.006,-0.004,0.002,0.453,0.002,0.443,0.003,-0.088,0.025,0.004,-0.066,
result_0.191_277,1.041,-0.019,-0.510,-0.589,0.183,-0.004,0.008,-0.147,0.042,0.203,0.022,0.495,-0.096,1.129,-0.019,-0.002,-0.005,0.017,-0.275,-0.003,0.547,-0.201,0.029,0.166,0.526,0.456,0.196,0.040,0.273,-0.005,-0.343,0.772,0.028,0.005,-0.508,0.274,0.114,-0.001,0.019,-0.020,0.091,-0.385,0.127,0.041,-0.047,
result_0.205_278,1.205,0.005,-0.253,-0.121,-0.002,0.081,-0.449,-0.624,-0.289,-0.004,-0.534,0.016,-0.045,0.008,0.027,0.995,0.063,0.018,-0.121,0.004,0.065,-0.347,-0.154,0.031,0.021,0.010,0.300,-0.184,0.370,0.534,-0.133,0.003,-0.000,0.018,-0.076,0.858,-0.001,0.088,-0.000,0.257,-0.000,-0.649,-0.163,-0.000,-0.083,
result_0.193_279,1.018,0.243,-0.109,-0.049,0.005,0.596,-0.020,-0.590,0.236,0.004,0.136,-0.001,-0.018,0.025,0.702,0.659,0.180,0.012,-0.018,0.218,0.012,-0.614,0.209,0.026,0.002,-0.000,0.787,-0.022,0.338,0.203,-0.010,0.032,0.004,0.044,-0.032,0.011,0.002,0.778,0.005,0.501,0.032,-0.004,-0.016,0.007,-0.687,
result_0.191_280,0.857,-0.001,-0.037,-0.018,0.012,0.679,0.048,-0.616,0.034,0.009,0.179,0.550,-0.544,0.288,0.591,0.593,0.066,0.001,-0.050,0.544,0.128,-0.253,0.167,0.030,0.105,-0.000,0.084,0.015,0.335,0.606,-0.043,0.998,0.011,0.026,-0.031,0.221,0.010,0.090,0.012,0.328,0.015,-0.754,0.041,0.011,-0.024,
result_0.190_281,1.330,0.214,-0.416,-0.171,0.365,0.067,0.137,-0.460,0.084,0.122,-0.003,0.412,-0.568,0.026,0.673,1.200,0.076,0.003,-0.352,0.065,0.068,-0.069,-0.003,0.120,0.228,0.011,0.232,0.145,0.131,0.046,-0.425,0.088,0.053,0.007,-0.001,0.255,0.025,0.412,0.055,0.275,0.085,-0.001,0.043,0.035,-0.543,
result_0.191_282,0.881,-0.010,-0.071,-0.463,0.193,0.008,0.236,-0.488,0.114,0.229,0.084,0.243,-0.752,0.019,0.770,0.017,1.210,0.002,-0.033,0.003,0.017,-0.017,0.015,0.002,0.378,-0.005,0.170,0.038,0.171,0.268,-0.069,0.936,0.143,0.002,-0.435,0.196,0.008,0.018,0.071,0.209,0.088,-0.062,0.032,0.279,-0.084,
result_0.195_283,1.114,0.013,-0.205,-0.091,0.010,0.042,0.084,-0.131,0.288,0.015,-0.001,0.521,-0.417,0.336,0.455,0.206,1.028,0.028,-0.045,0.312,0.208,-0.471,0.008,0.117,0.484,0.310,0.554,0.007,0.357,0.050,-0.474,0.355,0.006,0.006,-0.653,0.139,0.013,0.367,0.003,-0.009,0.061,-0.159,0.000,0.007,-0.174,
result_0.197_284,1.264,0.147,-0.002,-0.001,0.055,0.112,-0.017,-0.019,-0.242,0.056,-0.035,0.227,-0.002,0.084,0.154,0.136,0.174,0.010,-0.388,0.831,0.142,-0.612,-0.152,0.393,0.457,0.327,0.127,-0.386,0.269,0.796,-0.554,0.129,0.101,0.001,-0.553,0.482,0.088,0.082,0.066,0.108,0.014,-0.004,-0.051,0.150,-0.004,
result_0.189_285,0.830,0.140,-0.152,-0.843,0.003,0.170,-0.079,-0.430,-0.074,0.001,-0.076,0.341,-0.478,0.855,0.621,0.297,0.191,-0.001,-0.129,0.210,0.222,-0.166,-0.101,0.082,0.041,0.459,1.100,-0.001,0.132,0.008,-0.268,-0.008,0.003,-0.001,-0.006,0.383,0.001,0.853,0.378,0.080,0.097,-0.191,-0.051,0.001,-0.306,
result_0.189_286,1.025,0.181,-0.051,-0.588,0.006,0.609,0.003,-0.049,0.037,0.068,0.002,0.048,-0.022,0.183,0.506,0.439,0.459,-0.075,-0.562,0.367,0.522,-0.051,0.331,0.019,0.245,0.026,0.417,0.001,0.176,0.619,-0.722,0.759,0.010,-0.195,-0.028,0.228,0.387,0.025,0.024,0.678,0.027,-0.329,0.001,0.177,-0.181,
result_0.201_287,1.052,0.519,-0.001,-0.002,0.004,0.588,0.225,-0.120,0.059,0.072,0.114,0.557,-0.001,-0.003,0.341,-0.003,0.173,0.000,-0.001,-0.001,-0.002,-0.001,0.178,0.031,0.168,0.104,0.019,0.004,0.284,0.973,-0.024,0.660,0.122,0.077,-0.995,0.014,0.014,-0.001,0.017,0.129,0.008,-0.002,0.082,0.148,-0.186,
result_0.192_288,0.788,0.002,-0.587,-0.314,0.202,0.140,-0.126,-0.336,-0.056,0.051,-0.038,0.022,-0.048,0.728,0.407,0.732,0.210,0.002,-0.140,0.543,0.200,-0.108,-0.043,0.208,0.628,0.334,0.199,-0.028,0.194,0.211,-0.292,1.006,0.087,0.007,-0.700,0.318,0.044,0.005,0.017,0.005,0.011,-0.197,-0.134,0.272,-0.013,
result_0.193_289,1.025,0.156,-0.011,-0.228,0.013,0.092,-0.247,-0.317,-0.426,0.013,0.004,0.051,-0.147,0.021,0.117,0.041,0.098,0.001,-0.389,1.170,0.097,-0.507,0.006,0.066,0.312,0.275,0.574,0.003,0.350,0.362,-0.553,0.542,0.038,0.001,-0.366,0.595,0.013,0.095,0.005,0.486,0.044,-0.245,0.008,0.008,-0.390,
result_0.193_290,1.300,0.210,-0.002,-0.730,0.003,0.021,0.078,-0.539,0.190,0.004,0.053,0.023,-0.514,0.039,0.380,0.010,0.768,0.024,-0.010,0.028,0.043,-0.001,0.027,0.018,0.317,0.358,0.040,0.175,0.352,1.017,-0.190,0.307,0.027,0.010,-0.458,0.028,0.003,0.002,0.011,0.637,0.003,-0.002,0.220,0.035,-0.001,
result_0.195_291,1.265,0.542,-0.521,-0.423,0.005,0.257,0.014,-0.268,0.002,0.006,0.003,0.420,-0.331,0.435,0.393,0.812,-0.006,0.015,-0.506,0.041,-0.003,-0.012,0.003,0.314,-0.027,0.319,0.138,0.074,0.365,0.801,-0.098,0.051,0.004,0.018,-0.482,0.123,0.001,0.174,0.008,-0.020,0.008,-0.155,0.002,0.010,-0.134,
result_0.191_292,0.896,0.003,-0.110,-0.637,0.071,0.619,-0.001,-0.208,-0.005,0.262,-0.000,0.388,-0.131,0.020,0.586,0.107,0.115,-0.002,-0.031,0.583,0.045,-0.073,-0.002,0.001,0.014,0.473,0.220,-0.005,0.256,0.047,-0.563,0.968,0.091,-0.006,-0.620,0.345,0.008,0.941,0.148,0.017,0.070,-0.124,-0.011,0.065,-0.322,
result_0.192_293,0.942,0.423,-0.412,-0.181,0.003,0.083,0.097,-0.402,0.280,0.003,0.177,0.141,-0.168,0.021,0.535,0.019,0.003,-0.094,-0.366,1.015,0.004,-0.348,0.038,0.110,0.311,0.494,0.271,0.041,0.377,0.012,-0.177,0.910,0.003,-0.118,-0.080,0.040,0.003,0.788,0.003,0.036,0.003,-0.618,0.072,0.004,-0.537,
result_0.187_294,1.339,-0.004,-0.079,-0.685,0.009,0.690,0.063,-0.439,0.014,0.099,0.042,0.629,-0.061,0.324,0.468,0.243,0.581,-0.078,-0.233,-0.004,0.424,-0.778,0.066,0.382,0.112,-0.006,0.051,0.005,0.041,-0.005,-0.113,0.382,0.063,-0.154,-0.127,0.018,0.398,0.770,0.139,0.320,0.016,-0.276,0.050,0.035,-0.146,
result_0.194_295,1.230,-0.000,-0.299,-0.070,0.001,0.019,0.049,-0.419,0.023,0.001,0.033,0.527,-0.536,-0.004,0.666,0.412,0.676,-0.005,-0.357,0.262,0.034,-0.102,0.006,0.001,-0.000,-0.000,0.099,0.046,0.360,0.714,-0.345,0.315,0.001,-0.069,-0.219,0.318,0.001,0.530,0.001,-0.000,0.001,-0.176,0.052,0.001,-0.543,
result_0.190_296,1.315,0.407,-0.068,-0.342,0.198,0.562,0.016,-0.152,0.009,0.028,0.002,0.048,-0.028,0.196,0.091,0.069,0.068,0.007,-0.042,0.249,0.533,-0.112,0.007,0.344,0.044,0.671,0.248,0.009,0.216,0.705,-0.634,0.125,0.020,0.000,-0.048,0.028,0.024,0.682,0.201,0.362,0.010,-0.728,0.004,0.324,-0.519,
result_0.195_297,0.893,0.258,-0.351,-0.444,0.004,0.683,-0.206,-0.299,-0.004,0.003,-0.223,0.017,-0.329,0.481,0.080,0.817,-0.002,0.030,-0.573,-0.011,-0.004,-0.047,-0.189,0.868,0.005,0.079,0.884,-0.682,0.333,0.232,-0.534,-0.007,0.001,-0.015,-0.083,0.025,0.007,0.187,0.010,0.139,0.010,-0.128,-0.137,0.002,-0.044,
result_0.191_298,1.211,0.480,-0.096,-0.375,0.252,0.626,0.059,-0.439,0.001,0.006,0.023,0.026,-0.122,0.096,0.493,0.587,0.267,0.002,-0.092,0.016,0.160,-0.060,0.005,0.004,0.373,0.110,0.388,0.002,0.155,0.553,-0.150,0.191,0.010,0.011,-0.152,0.345,-0.002,0.588,0.228,0.273,0.144,-0.069,0.005,-0.004,-0.884,
result_0.190_299,1.277,0.005,-0.001,-0.543,0.271,0.027,-0.000,-0.001,-0.001,0.168,-0.000,0.002,-0.006,0.035,0.006,0.036,1.108,0.000,-0.005,0.619,0.019,-0.001,-0.001,0.009,0.851,0.001,0.099,-0.000,0.251,0.019,-0.005,0.346,0.010,0.005,-0.001,0.337,0.148,0.013,0.130,0.004,0.016,-0.007,-0.000,0.123,-1.009,
result_0.191_300,0.644,-0.002,-0.081,-0.225,0.175,0.832,0.003,-0.255,0.016,0.183,-0.016,-0.004,-0.319,0.301,0.811,0.018,0.005,-0.030,-0.117,0.858,0.006,-0.182,-0.056,0.379,-0.005,-0.002,0.736,-0.153,0.195,0.013,-0.119,0.850,0.003,-0.058,-0.313,0.000,0.239,0.012,0.004,-0.001,0.004,-0.905,-0.111,0.194,-0.097,
