result_num,chadox1,pfizer,moderna,l18f,t19r,t20n,p26s,69-70d,d80a,t95i,d138y,g142d,144d,e154k,d156-157,r190s,d215g,a222v,242-244d,r246i,s247r,k417n,k417t,l452r,t478k,e484k,e484q,n501y,a570d,d614g,h655y,p681r,p681h,a701v,t716i,d950n,s982a,t1027i,q1071h,d1118h,v1176f,
result_0.198_1,0.030,0.027,-0.038,-0.008,0.004,0.004,-0.002,-0.003,0.012,0.009,0.051,0.022,-0.022,0.028,0.022,0.041,-0.012,-0.007,0.085,-0.013,0.021,0.020,0.065,-0.009,0.004,0.285,0.009,0.008,-0.061,0.059,0.010,0.014,0.013,0.090,-0.014,0.011,0.088,0.025,0.016,0.008,0.093,
result_0.189_2,0.023,0.021,-0.034,0.005,0.001,0.003,0.039,-0.026,0.028,0.031,0.028,0.034,-0.059,0.020,0.013,0.019,-0.015,0.025,0.011,-0.017,0.016,0.008,0.044,-0.003,-0.002,0.317,0.021,0.019,-0.060,0.084,0.017,-0.006,-0.002,0.060,-0.006,-0.007,0.065,0.017,0.019,0.013,0.091,
result_0.194_3,0.023,0.020,-0.041,-0.016,-0.000,0.001,0.004,0.016,0.017,0.024,0.033,0.035,0.007,0.009,0.016,0.015,-0.001,0.004,0.052,-0.039,0.012,0.011,0.078,-0.005,-0.006,0.304,0.009,0.023,-0.040,0.054,0.017,0.007,-0.007,0.092,0.009,0.013,0.047,0.019,0.010,0.013,0.086,
result_0.198_4,0.024,0.010,-0.042,-0.010,0.003,0.002,0.005,0.007,0.007,0.012,0.026,0.037,0.008,0.012,-0.008,0.003,-0.002,0.014,0.077,-0.029,0.018,0.015,0.085,-0.006,-0.006,0.305,0.019,0.041,-0.034,0.059,0.017,0.003,-0.012,0.102,0.006,0.017,0.061,0.016,0.012,0.022,0.091,
result_0.199_5,0.038,0.025,-0.039,-0.010,0.000,0.005,-0.005,0.008,0.014,0.010,0.008,0.012,-0.028,0.038,0.030,0.048,0.011,0.011,0.084,-0.020,0.014,0.032,0.054,0.006,-0.007,0.294,0.018,0.029,-0.049,0.061,0.028,0.014,0.005,0.112,0.002,0.001,0.070,0.029,0.029,0.030,0.103,
result_0.198_6,0.024,0.004,-0.056,-0.019,-0.003,0.000,0.029,-0.014,0.001,0.026,0.021,0.023,-0.031,0.017,0.018,0.012,0.022,0.011,0.060,-0.016,0.009,-0.004,0.051,0.000,0.018,0.270,0.014,0.032,-0.048,0.052,0.012,0.013,-0.011,0.080,-0.006,-0.002,0.107,0.014,0.021,0.029,0.087,
result_0.190_7,0.008,-0.004,-0.045,0.005,0.002,0.007,0.020,0.023,0.015,0.030,0.029,0.030,-0.010,0.039,0.005,0.026,0.005,0.026,0.020,-0.033,-0.008,0.014,0.026,0.005,-0.012,0.304,0.011,0.047,-0.039,0.123,0.027,0.005,-0.024,0.071,-0.005,0.003,0.058,0.025,0.010,-0.015,0.100,
result_0.189_8,0.020,0.015,0.014,0.005,-0.001,0.006,0.028,-0.038,0.016,0.038,0.027,0.025,0.003,0.029,-0.019,0.030,0.031,0.004,0.042,0.010,0.018,0.003,0.024,-0.011,-0.001,0.289,0.012,-0.050,-0.099,0.008,0.019,-0.013,0.008,0.015,-0.060,0.000,0.086,0.018,0.012,-0.006,0.094,
result_0.195_9,0.024,0.011,-0.026,-0.002,0.001,-0.001,0.028,-0.002,0.026,0.026,0.010,0.023,0.009,0.011,0.004,0.020,-0.017,0.014,0.045,-0.018,0.015,0.020,0.073,-0.001,0.019,0.289,0.021,0.047,-0.037,0.028,-0.001,0.014,-0.002,0.097,0.006,0.001,0.062,0.005,0.023,-0.010,0.089,
result_0.190_10,0.030,0.009,-0.045,0.009,0.003,0.002,0.096,0.045,0.014,0.030,0.033,0.019,-0.011,0.034,0.021,0.019,0.029,0.006,0.130,0.036,0.004,0.043,0.000,0.002,0.005,0.267,0.022,0.059,-0.048,0.048,0.018,0.016,-0.052,0.104,-0.001,-0.002,0.067,0.021,0.014,-0.011,0.085,
result_0.192_11,0.025,-0.002,0.002,-0.006,0.003,0.006,0.005,0.004,-0.043,0.016,0.036,0.011,0.001,0.027,0.003,0.047,0.086,-0.007,0.133,0.000,-0.008,0.046,0.026,0.009,0.018,0.294,0.025,0.091,-0.043,0.078,0.015,0.014,-0.033,0.108,0.004,-0.004,0.030,0.028,0.028,-0.006,0.088,
result_0.196_12,0.030,0.023,-0.039,-0.006,-0.001,0.001,-0.000,0.016,0.019,0.022,0.028,0.011,0.011,0.028,0.006,0.032,-0.012,0.013,0.073,-0.009,0.022,0.011,0.089,-0.009,0.013,0.301,0.026,0.028,-0.047,0.033,0.014,0.011,0.004,0.097,-0.005,0.012,0.058,-0.002,0.032,0.019,0.092,
result_0.191_13,0.023,0.013,0.022,0.003,-0.000,0.005,0.023,-0.018,0.020,0.038,0.023,0.022,0.001,0.039,-0.014,0.014,0.056,-0.005,0.060,0.003,0.013,0.035,0.011,-0.011,0.006,0.295,0.020,-0.039,-0.089,0.101,0.019,-0.009,0.008,0.032,-0.046,-0.008,0.076,0.017,0.021,-0.008,0.094,
result_0.188_14,0.019,0.008,-0.025,0.009,-0.000,0.005,0.044,0.002,0.079,0.024,0.037,0.021,0.018,0.022,0.024,0.029,0.022,0.006,-0.022,-0.031,0.000,0.028,0.021,0.007,0.007,0.292,0.015,0.053,-0.039,0.069,0.015,-0.001,-0.033,0.067,0.002,0.005,0.037,0.022,0.020,-0.028,0.091,
result_0.192_15,0.022,0.033,-0.033,-0.004,-0.003,0.005,0.064,0.030,0.035,0.007,0.012,0.027,0.013,0.030,0.001,0.031,0.028,-0.004,0.038,-0.029,0.013,0.037,0.014,-0.006,0.006,0.279,0.017,0.017,0.026,0.122,0.019,0.008,0.003,0.079,0.005,0.003,0.083,0.009,0.017,0.020,0.094,
result_0.207_16,0.012,-0.016,-0.030,-0.003,0.001,0.003,-0.004,0.020,0.014,0.029,0.008,0.015,0.016,0.005,0.033,0.022,0.025,-0.007,0.082,-0.007,0.001,0.021,0.065,0.012,0.000,0.316,0.007,0.011,0.005,0.095,0.024,0.002,0.007,0.085,0.001,0.024,0.093,0.023,0.025,0.024,0.079,
result_0.189_17,0.026,0.020,-0.030,0.014,0.001,0.005,0.058,0.023,0.036,0.014,0.034,0.038,-0.007,0.022,0.011,0.018,-0.022,0.010,0.006,-0.016,0.008,0.026,0.030,0.007,0.013,0.310,0.027,0.028,-0.045,0.078,0.026,-0.008,-0.045,0.064,0.004,-0.010,0.049,0.024,0.025,-0.029,0.098,
result_0.201_18,0.005,-0.003,-0.020,-0.008,0.003,0.008,0.053,0.022,0.008,0.024,0.010,0.028,0.038,0.010,0.006,0.002,-0.001,0.001,0.022,-0.029,0.017,0.000,0.030,0.011,0.018,0.258,0.021,0.023,-0.063,0.054,0.021,0.000,0.024,0.051,-0.019,0.014,0.105,0.010,0.014,0.047,0.199,
result_0.199_19,0.024,0.006,-0.035,0.002,0.003,0.005,0.033,-0.028,0.014,0.031,0.027,0.048,0.016,0.016,0.029,0.013,0.047,0.006,0.025,0.000,0.015,0.033,0.056,-0.002,0.011,0.340,0.008,0.040,-0.067,0.077,0.005,0.015,0.013,0.122,-0.084,-0.006,0.081,0.021,0.006,0.052,0.099,
result_0.191_20,0.029,0.027,-0.044,0.004,-0.003,0.005,0.033,0.020,0.014,0.035,0.028,0.031,-0.001,0.034,0.014,0.020,-0.002,-0.013,0.031,-0.020,-0.005,0.029,0.023,0.003,-0.013,0.288,0.009,0.025,-0.052,0.133,0.021,-0.006,-0.017,0.078,-0.002,-0.002,0.061,0.015,0.018,-0.002,0.080,
result_0.192_21,0.029,0.002,-0.053,-0.006,0.004,0.000,0.071,0.003,0.018,0.022,0.021,0.026,0.024,0.024,-0.004,0.002,0.053,0.026,0.098,-0.036,0.001,0.047,0.058,-0.005,0.013,0.332,0.023,0.033,0.014,0.084,0.016,0.003,0.063,0.109,0.012,0.005,0.058,0.016,0.024,0.050,0.096,
result_0.190_22,0.022,0.020,-0.048,-0.002,-0.000,0.004,0.029,0.014,0.036,0.026,0.025,0.027,-0.005,0.025,-0.004,0.029,0.036,-0.014,-0.040,-0.027,-0.002,0.033,0.024,0.004,0.006,0.279,0.013,0.039,-0.054,0.130,0.013,-0.002,-0.016,0.078,-0.004,0.007,0.056,0.016,0.017,-0.002,0.090,
result_0.192_23,0.027,0.017,0.000,-0.012,0.003,0.005,0.091,-0.025,-0.064,0.034,0.036,0.023,0.001,0.041,0.001,0.013,0.000,-0.010,0.115,0.023,0.018,-0.023,0.044,-0.007,0.013,0.275,0.005,-0.018,-0.089,0.044,0.019,0.016,-0.000,0.049,-0.048,0.002,0.098,0.022,0.023,0.010,0.083,
result_0.193_24,0.031,0.009,-0.014,0.003,0.002,0.007,0.022,-0.013,-0.007,0.030,0.043,0.038,0.039,0.019,0.031,0.036,0.045,-0.005,0.095,0.016,0.026,-0.022,0.029,0.001,-0.008,0.275,0.026,0.016,0.005,0.046,0.028,-0.005,-0.005,0.084,-0.007,0.007,0.088,0.011,0.020,0.013,0.078,
result_0.199_25,0.009,-0.001,-0.018,0.004,0.003,0.007,0.009,-0.010,-0.012,0.019,0.027,0.009,0.039,0.008,0.011,0.041,0.020,0.017,0.098,0.001,0.019,-0.008,0.020,0.010,0.010,0.268,0.018,0.010,-0.083,0.042,0.009,0.007,0.020,0.076,0.001,0.000,0.118,0.009,0.011,0.034,0.184,
